{"learner":{"attributes":{"best_iteration":"99","best_ntree_limit":"100","scikit_learn":"{\"use_label_encoder\": null, \"n_estimators\": 100, \"objective\": \"multi:softmax\", \"max_depth\": null, \"max_leaves\": null, \"max_bin\": null, \"grow_policy\": null, \"learning_rate\": null, \"verbosity\": null, \"booster\": null, \"tree_method\": null, \"gamma\": null, \"min_child_weight\": null, \"max_delta_step\": null, \"subsample\": null, \"sampling_method\": null, \"colsample_bytree\": null, \"colsample_bylevel\": null, \"colsample_bynode\": null, \"reg_alpha\": null, \"reg_lambda\": null, \"scale_pos_weight\": null, \"base_score\": null, \"missing\": NaN, \"num_parallel_tree\": null, \"random_state\": null, \"n_jobs\": null, \"monotone_constraints\": null, \"interaction_constraints\": null, \"importance_type\": null, \"gpu_id\": null, \"validate_parameters\": null, \"predictor\": null, \"enable_categorical\": false, \"feature_types\": null, \"max_cat_to_onehot\": null, \"max_cat_threshold\": null, \"eval_metric\": null, \"early_stopping_rounds\": null, \"callbacks\": null, \"kwargs\": {\"num_class\": 3}, \"classes_\": [0, 1, 2], \"n_classes_\": 3, \"_estimator_type\": \"classifier\"}"},"feature_names":[],"feature_types":[],"gradient_booster":{"model":{"gbtree_model_param":{"num_parallel_tree":"1","num_trees":"300","size_leaf_vector":"0"},"tree_info":[0,1,2,0,1,2,0,1,2,0,1,2,0,1,2,0,1,2,0,1,2,0,1,2,0,1,2,0,1,2,0,1,2,0,1,2,0,1,2,0,1,2,0,1,2,0,1,2,0,1,2,0,1,2,0,1,2,0,1,2,0,1,2,0,1,2,0,1,2,0,1,2,0,1,2,0,1,2,0,1,2,0,1,2,0,1,2,0,1,2,0,1,2,0,1,2,0,1,2,0,1,2,0,1,2,0,1,2,0,1,2,0,1,2,0,1,2,0,1,2,0,1,2,0,1,2,0,1,2,0,1,2,0,1,2,0,1,2,0,1,2,0,1,2,0,1,2,0,1,2,0,1,2,0,1,2,0,1,2,0,1,2,0,1,2,0,1,2,0,1,2,0,1,2,0,1,2,0,1,2,0,1,2,0,1,2,0,1,2,0,1,2,0,1,2,0,1,2,0,1,2,0,1,2,0,1,2,0,1,2,0,1,2,0,1,2,0,1,2,0,1,2,0,1,2,0,1,2,0,1,2,0,1,2,0,1,2,0,1,2,0,1,2,0,1,2,0,1,2,0,1,2,0,1,2,0,1,2,0,1,2,0,1,2,0,1,2,0,1,2,0,1,2,0,1,2,0,1,2,0,1,2,0,1,2,0,1,2,0,1,2,0,1,2,0,1,2,0,1,2],"trees":[{"base_weights":[2.7635413E-1,8.8978004E-1,-3.456802E-1,1.2311751E0,3.074313E-1,2.800841E-1,-6.336113E-1,-7.321528E-1,1.2978387E0,1.0847491E0,3.0914783E-2,4.525611E-1,-7.494216E-1,-3.0037138E-1,-6.805107E-1,1.2244898E0,-7.487457E-1,1.3554965E0,8.52531E-2,-7.426711E-1,1.1531668E0,4.8951194E-1,-2.7352884E-1,8.021856E-1,7.522159E-2,2.883696E-1,-5.058431E-1,-4.4538364E-1,-7.155568E-1,1.4248021E0,1.2348372E0,3.974871E-1,-7.331672E-1,1.3729272E0,8.3706355E-1,7.8651613E-1,7.0346184E-2,2.5540063E-1,-4.2189047E-1,1.1293484E0,4.63874E-1,1.1965679E0,-1.5799724E-1,6.298032E-1,-1.5750921E-1,-1.0869072E-1,-6.5197533E-1,-2.68024E-1,-7.3726475E-1,-5.636203E-1,-7.324963E-1,1.4809086E0,1.3827994E0,1.2942182E0,7.83192E-1,7.8100556E-1,-3.4924778E-3,1.4613312E0,1.2670189E0,1.1872431E0,3.9641654E-1,1.0490956E0,3.4405658E-1,6.855713E-1,-1.9878425E-1,5.785009E-1,-2.595757E-1,-2.596638E-1,-6.217244E-1,-7.3496664E-1,1.1754699E0,6.864246E-1,9.4128154E-2,1.284614E0,-3.138462E-1,9.099876E-1,-2.6057595E-1,1.2631578E0,4.6208248E-1,1.0485437E0,-3.2962453E-1,1.8443163E-1,-4.2247516E-1,1.4563103E-1,-6.728583E-1,-8.180661E-2,-5.062808E-1,-5.4734415E-1,-7.4780434E-1,8.93617E-1,-5.7854754E-1,1.0344827E0,-7.3286474E-1],"categories":[],"categories_nodes":[],"categories_segments":[],"categories_sizes":[],"default_left":[1,1,1,1,1,1,1,1,1,1,1,1,0,1,1,0,0,1,1,0,1,1,1,1,1,1,1,1,1,1,1,1,0,1,1,1,1,1,1,1,1,1,1,1,1,1,1,1,1,1,1,0,0,0,0,0,0,0,0,0,0,0,0,0,0,0,0,0,0,0,0,0,0,0,0,0,0,0,0,0,0,0,0,0,0,0,0,0,0,0,0,0,0],"id":0,"left_children":[1,3,5,7,9,11,13,15,17,19,21,23,-1,25,27,-1,-1,29,31,-1,33,35,37,39,41,43,45,47,49,51,53,55,-1,57,59,61,63,65,67,69,71,73,75,77,79,81,83,85,87,89,91,-1,-1,-1,-1,-1,-1,-1,-1,-1,-1,-1,-1,-1,-1,-1,-1,-1,-1,-1,-1,-1,-1,-1,-1,-1,-1,-1,-1,-1,-1,-1,-1,-1,-1,-1,-1,-1,-1,-1,-1,-1,-1],"loss_changes":[2.2026719E4,5.7778867E3,5.1644707E3,2.3990254E3,2.309032E3,1.6042933E3,3.0659277E2,2.0472351E1,1.2388477E3,3.5328223E2,1.1065985E3,1.0207184E3,0E0,2.9333594E2,1.4147754E2,0E0,0E0,1.3970312E2,2.0611357E2,0E0,1.8762378E2,3.93636E2,3.739261E2,4.4399146E2,9.7365015E2,9.56539E1,1.0422113E2,1.1549222E2,3.8125977E1,2.3257812E1,1.6470703E2,8.976079E1,0E0,1.3142334E1,1.7188867E2,2.1466394E2,2.1746368E2,1.7387878E2,1.20453E2,1.7635938E2,1.6254398E2,8.564722E1,3.3791446E2,3.7197617E1,5.7015007E1,4.4645996E1,2.197522E1,6.170343E1,1.2803345E0,3.328351E1,9.525391E0,0E0,0E0,0E0,0E0,0E0,0E0,0E0,0E0,0E0,0E0,0E0,0E0,0E0,0E0,0E0,0E0,0E0,0E0,0E0,0E0,0E0,0E0,0E0,0E0,0E0,0E0,0E0,0E0,0E0,0E0,0E0,0E0,0E0,0E0,0E0,0E0,0E0,0E0,0E0,0E0,0E0,0E0],"parents":[2147483647,0,0,1,1,2,2,3,3,4,4,5,5,6,6,7,7,8,8,9,9,10,10,11,11,13,13,14,14,17,17,18,18,20,20,21,21,22,22,23,23,24,24,25,25,26,26,27,27,28,28,29,29,30,30,31,31,33,33,34,34,35,35,36,36,37,37,38,38,39,39,40,40,41,41,42,42,43,43,44,44,45,45,46,46,47,47,48,48,49,49,50,50],"right_children":[2,4,6,8,10,12,14,16,18,20,22,24,-1,26,28,-1,-1,30,32,-1,34,36,38,40,42,44,46,48,50,52,54,56,-1,58,60,62,64,66,68,70,72,74,76,78,80,82,84,86,88,90,92,-1,-1,-1,-1,-1,-1,-1,-1,-1,-1,-1,-1,-1,-1,-1,-1,-1,-1,-1,-1,-1,-1,-1,-1,-1,-1,-1,-1,-1,-1,-1,-1,-1,-1,-1,-1,-1,-1,-1,-1,-1,-1],"split_conditions":[3.5E0,3.5E0,3.5E0,5E-1,3.5E0,4.5E0,5E-1,5E-1,3.5E0,5E-1,3.5E0,5E-1,-2.2482648E-1,2.5E0,2.5E0,3.6734694E-1,-2.2462371E-1,2.5E0,4.5E0,-2.2280133E-1,2.5E0,4.5E0,3.5E0,3.5E0,2.5E0,4.5E0,3.5E0,4.5E0,3.5E0,1.5E0,4.5E0,5E-1,-2.1995015E-1,4.5E0,4.5E0,2.5E0,2.5E0,2.5E0,4.5E0,5E-1,2.5E0,4.5E0,5E-1,3.5E0,2.5E0,4.5E0,2.5E0,3.5E0,5E-1,2.5E0,5E-1,4.442726E-1,4.1483983E-1,3.8826546E-1,2.349576E-1,2.3430167E-1,-1.0477434E-3,4.383994E-1,3.801057E-1,3.5617295E-1,1.1892497E-1,3.147287E-1,1.03216976E-1,2.056714E-1,-5.9635278E-2,1.7355028E-1,-7.787271E-2,-7.789914E-2,-1.8651733E-1,-2.2049E-1,3.52641E-1,2.0592739E-1,2.8238447E-2,3.853842E-1,-9.4153866E-2,2.729963E-1,-7.817279E-2,3.7894738E-1,1.3862474E-1,3.1456313E-1,-9.888736E-2,5.532949E-2,-1.2674256E-1,4.368931E-2,-2.0185749E-1,-2.4541983E-2,-1.5188424E-1,-1.6420326E-1,-2.2434132E-1,2.680851E-1,-1.7356427E-1,3.1034482E-1,-2.1985944E-1],"split_indices":[16,18,18,11,23,11,4,18,11,11,20,6,0,13,22,0,0,18,11,0,11,24,19,11,22,21,12,16,23,18,22,4,0,18,18,13,12,13,18,11,18,16,4,12,24,18,24,12,2,15,20,0,0,0,0,0,0,0,0,0,0,0,0,0,0,0,0,0,0,0,0,0,0,0,0,0,0,0,0,0,0,0,0,0,0,0,0,0,0,0,0,0,0],"split_type":[0,0,0,0,0,0,0,0,0,0,0,0,0,0,0,0,0,0,0,0,0,0,0,0,0,0,0,0,0,0,0,0,0,0,0,0,0,0,0,0,0,0,0,0,0,0,0,0,0,0,0,0,0,0,0,0,0,0,0,0,0,0,0,0,0,0,0,0,0,0,0,0,0,0,0,0,0,0,0,0,0,0,0,0,0,0,0,0,0,0,0,0,0],"sum_hessian":[5.772444E4,2.906311E4,2.8661332E4,1.8321332E4,1.0741777E4,9.031999E3,1.9629332E4,6.013333E2,1.7719998E4,2.8177776E3,7.9239995E3,7.736444E3,1.2955554E3,2.4226665E3,1.7206666E4,4.444444E0,5.9688885E2,1.6915555E4,8.044444E2,1.0133333E2,2.7164443E3,3.1613333E3,4.7626665E3,4.0151108E3,3.721333E3,6.266666E2,1.7959999E3,2.2337776E3,1.4972888E4,1.0737333E4,6.1782217E3,5.826666E2,2.2177777E2,1.6004443E3,1.1159999E3,1.8497777E3,1.3115554E3,1.0431111E3,3.7195554E3,2.0399999E3,1.975111E3,6.3999994E2,3.0813333E3,3.5466666E2,2.7199997E2,4.8355554E2,1.3124443E3,1.3906666E3,8.431111E2,1.5053333E3,1.3467555E4,4.582222E3,6.155111E3,5.4586665E3,7.1955554E2,2.973333E2,2.853333E2,8.6533325E2,7.351111E2,6.2088885E2,4.9511108E2,1.1599999E3,6.897777E2,3.9866666E2,9.1288885E2,6.4088885E2,4.022222E2,2.0542222E3,1.6653333E3,4.8888885E1,1.991111E3,1.2324443E3,7.426666E2,6.0488885E2,3.511111E1,2.693333E2,2.8119998E3,7.2888885E1,2.8177777E2,3.3333332E1,2.3866666E2,2.5022221E2,2.3333331E2,3.3333332E1,1.2791111E3,7.813333E2,6.093333E2,4.7111107E1,7.9599994E2,1.4666666E1,1.4906666E3,2.222222E0,1.3465333E4],"tree_param":{"num_deleted":"0","num_feature":"27","num_nodes":"93","size_leaf_vector":"0"}},{"base_weights":[-5.038911E-1,-2.1507622E-1,-6.332861E-1,-5.878599E-1,3.2058567E-1,-4.577684E-1,-6.958653E-1,-7.0328206E-1,-3.7735572E-1,-2.8828537E-1,6.10389E-1,-5.9777546E-1,9.447206E-2,-7.359728E-1,-6.3599205E-1,-7.335164E-1,-5.880142E-1,-6.5134716E-1,-9.528415E-2,-6.0476416E-1,3.202641E-2,-9.393351E-2,8.0560553E-1,-6.899702E-1,-3.423122E-1,-5.280839E-1,2.4510501E-1,-7.4942374E-1,-6.5089256E-1,-5.9079957E-1,-7.4918205E-1,-7.483489E-1,-7.059855E-1,-7.295015E-1,-4.604424E-1,-7.089702E-1,-4.2673528E-1,-6.759787E-1,1.8869616E-1,-7.292758E-1,-4.7054285E-1,-3.393275E-1,4.4228092E-1,-4.7745204E-1,3.035826E-1,8.9014065E-1,-7.46277E-1,-7.332067E-1,-6.1041963E-1,-6.135763E-1,-5.863097E-2,-6.239258E-1,-1.8270408E-1,3.7740433E-1,-7.46277E-1,-6.9632894E-1,-4.4579232E-1,-7.4184495E-1,-5.3817755E-1,-7.233128E-1,-6.117042E-1,-7.3623496E-1,-5.907693E-1,-5.732591E-1,-1.1021352E-2,-7.2245485E-1,-5.1063836E-1,-4.7349724E-1,7.8947365E-1,-7.185841E-1,-6.575347E-2,-6.587251E-1,3.2582155E-1,-7.308598E-1,-2.5544848E-8,-5.940853E-1,-2.2279797E-1,-4.977472E-1,-5.008392E-3,5.319376E-1,-7.31302E-1,-5.436287E-1,1.5856233E-1,-6.1038965E-1,4.5781362E-1,-4.5093454E-2,1.0424182E0,-7.476404E-1,-6.955266E-1,-7.3693544E-1,-4.7262254E-1,-6.608379E-1,-4.455708E-1,4.0725525E-2,-7.445433E-1,-6.743622E-1,-3.3407578E-1,-7.24138E-1,6.854126E-2,2.6574284E-2,6.7254716E-1,-7.2882223E-1,-6.308624E-1,-6.363967E-1,-9.892873E-3,-7.496004E-1,-6.9102997E-1,-4.473969E-1,-7.2561944E-1],"categories":[],"categories_nodes":[],"categories_segments":[],"categories_sizes":[],"default_left":[1,1,1,1,1,1,1,1,1,1,1,1,1,1,1,1,1,1,1,1,1,1,1,1,1,1,1,0,1,1,0,0,1,1,1,1,1,1,1,1,1,1,1,1,1,1,0,1,1,1,1,1,1,1,0,1,1,1,1,0,0,0,0,0,0,0,0,0,0,0,0,0,0,0,0,0,0,0,0,0,0,0,0,0,0,0,0,0,0,0,0,0,0,0,0,0,0,0,0,0,0,0,0,0,0,0,0,0,0],"id":1,"left_children":[1,3,5,7,9,11,13,15,17,19,21,23,25,27,29,31,33,35,37,39,41,43,45,47,49,51,53,-1,55,57,-1,-1,59,61,63,65,67,69,71,73,75,77,79,81,83,85,-1,87,89,91,93,95,97,99,-1,101,103,105,107,-1,-1,-1,-1,-1,-1,-1,-1,-1,-1,-1,-1,-1,-1,-1,-1,-1,-1,-1,-1,-1,-1,-1,-1,-1,-1,-1,-1,-1,-1,-1,-1,-1,-1,-1,-1,-1,-1,-1,-1,-1,-1,-1,-1,-1,-1,-1,-1,-1,-1],"loss_changes":[2.1571328E3,3.5669578E3,4.3754492E2,2.5564233E2,1.2936343E3,8.103872E2,7.00957E1,2.3271973E1,2.8837482E2,2.3971884E2,6.829846E2,1.9668506E2,1.9898972E2,1.9643555E1,5.9894043E1,1.670166E0,2.526474E1,2.4198303E1,3.0357257E2,1.9535004E1,1.7933014E2,1.6460979E2,5.108567E2,2.068042E1,1.707388E2,1.3571793E1,2.2431607E2,0E0,2.2139038E1,6.663965E1,0E0,0E0,2.6660156E0,1.9165039E-1,3.7947083E1,3.656067E0,2.2497154E1,1.5670563E1,1.4390607E2,7.1066284E-1,1.7473465E1,3.272258E1,5.923011E1,2.321193E1,7.503674E1,5.2535376E2,0E0,1.6418457E0,3.7465027E1,8.712402E0,7.403348E1,4.4998856E0,1.2458842E1,1.5609341E2,0E0,3.7315674E0,3.6523117E1,3.3984375E-1,1.0617529E2,0E0,0E0,0E0,0E0,0E0,0E0,0E0,0E0,0E0,0E0,0E0,0E0,0E0,0E0,0E0,0E0,0E0,0E0,0E0,0E0,0E0,0E0,0E0,0E0,0E0,0E0,0E0,0E0,0E0,0E0,0E0,0E0,0E0,0E0,0E0,0E0,0E0,0E0,0E0,0E0,0E0,0E0,0E0,0E0,0E0,0E0,0E0,0E0,0E0,0E0],"parents":[2147483647,0,0,1,1,2,2,3,3,4,4,5,5,6,6,7,7,8,8,9,9,10,10,11,11,12,12,13,13,14,14,15,15,16,16,17,17,18,18,19,19,20,20,21,21,22,22,23,23,24,24,25,25,26,26,28,28,29,29,32,32,33,33,34,34,35,35,36,36,37,37,38,38,39,39,40,40,41,41,42,42,43,43,44,44,45,45,47,47,48,48,49,49,50,50,51,51,52,52,53,53,55,55,56,56,57,57,58,58],"right_children":[2,4,6,8,10,12,14,16,18,20,22,24,26,28,30,32,34,36,38,40,42,44,46,48,50,52,54,-1,56,58,-1,-1,60,62,64,66,68,70,72,74,76,78,80,82,84,86,-1,88,90,92,94,96,98,100,-1,102,104,106,108,-1,-1,-1,-1,-1,-1,-1,-1,-1,-1,-1,-1,-1,-1,-1,-1,-1,-1,-1,-1,-1,-1,-1,-1,-1,-1,-1,-1,-1,-1,-1,-1,-1,-1,-1,-1,-1,-1,-1,-1,-1,-1,-1,-1,-1,-1,-1,-1,-1,-1],"split_conditions":[5E-1,3.5E0,5E-1,2.5E0,3.5E0,4.5E0,3.5E0,3.5E0,2.5E0,2.5E0,1.5E0,3.5E0,1.5E0,3.5E0,4.5E0,2.5E0,1.5E0,4.5E0,3.5E0,4.5E0,4.5E0,4.5E0,4.5E0,2.5E0,2.5E0,4.5E0,4.5E0,-2.2482713E-1,5E-1,2.5E0,-2.2475462E-1,-2.2450468E-1,4.5E0,4.5E0,4.5E0,4.5E0,1.345E2,4.5E0,2.5E0,2.92E3,3.5E0,3.5E0,4.5E0,4.5E0,2.5E0,2.5E0,-2.238831E-1,3.5E0,2.5E0,4.5E0,4.5E0,4.5E0,5E-1,2.5E0,-2.238831E-1,2.5E0,2.5E0,2.5E0,4.5E0,-2.1699385E-1,-1.8351126E-1,-2.208705E-1,-1.7723079E-1,-1.7197774E-1,-3.3064059E-3,-2.1673647E-1,-1.531915E-1,-1.4204918E-1,2.3684211E-1,-2.1557525E-1,-1.9726042E-2,-1.9761753E-1,9.774647E-2,-2.1925795E-1,-7.663455E-9,-1.7822559E-1,-6.68394E-2,-1.4932416E-1,-1.5025177E-3,1.5958129E-1,-2.1939062E-1,-1.6308862E-1,4.75687E-2,-1.831169E-1,1.3734409E-1,-1.3528037E-2,3.1272548E-1,-2.2429211E-1,-2.08658E-1,-2.2108065E-1,-1.4178677E-1,-1.9825138E-1,-1.3367124E-1,1.2217659E-2,-2.23363E-1,-2.0230867E-1,-1.0022274E-1,-2.1724142E-1,2.0562379E-2,7.972285E-3,2.0176415E-1,-2.1864668E-1,-1.8925874E-1,-1.9091903E-1,-2.967862E-3,-2.2488013E-1,-2.07309E-1,-1.3421908E-1,-2.1768583E-1],"split_indices":[4,18,2,18,12,24,14,13,13,13,13,24,13,11,16,13,18,22,12,18,18,18,11,24,12,23,11,0,6,11,0,0,19,24,22,14,25,22,22,10,14,22,11,14,22,22,0,12,12,21,11,19,11,12,0,12,14,18,11,0,0,0,0,0,0,0,0,0,0,0,0,0,0,0,0,0,0,0,0,0,0,0,0,0,0,0,0,0,0,0,0,0,0,0,0,0,0,0,0,0,0,0,0,0,0,0,0,0,0],"split_type":[0,0,0,0,0,0,0,0,0,0,0,0,0,0,0,0,0,0,0,0,0,0,0,0,0,0,0,0,0,0,0,0,0,0,0,0,0,0,0,0,0,0,0,0,0,0,0,0,0,0,0,0,0,0,0,0,0,0,0,0,0,0,0,0,0,0,0,0,0,0,0,0,0,0,0,0,0,0,0,0,0,0,0,0,0,0,0,0,0,0,0,0,0,0,0,0,0,0,0,0,0,0,0,0,0,0,0,0,0],"sum_hessian":[5.772444E4,1.7860889E4,3.9863555E4,1.0531555E4,7.329333E3,1.0479555E4,2.9383998E4,6.800444E3,3.7311108E3,2.3635554E3,4.9657773E3,8.359999E3,2.1195554E3,1.7589777E4,1.1794222E4,5.383111E3,1.4173333E3,1.8919999E3,1.839111E3,1.1884443E3,1.1751111E3,1.0777777E3,3.8879998E3,6.1417773E3,2.2182222E3,4.1244443E2,1.707111E3,1.5181777E4,2.4079998E3,8.433333E3,3.3608887E3,3.481333E3,1.9017777E3,6.697777E2,7.475555E2,1.5039999E3,3.8799997E2,6.0355554E2,1.2355555E3,6.1422217E2,5.7422217E2,6.1688885E2,5.5822217E2,5.484444E2,5.293333E2,3.6875554E3,2.0044443E2,3.9737776E3,2.1679998E3,1.1333333E3,1.0848888E3,3.222222E2,9.022221E1,1.5066666E3,2.0044443E2,1.9693333E3,4.3866663E2,2.1755554E3,6.2577773E3,1.6008888E3,3.008889E2,6.346666E2,3.511111E1,5.973333E2,1.5022221E2,1.4057777E3,9.822221E1,3.742222E2,1.3777777E1,5.6399994E2,3.9555553E1,1.7155554E2,1.0639999E3,6.1288885E2,1.3333333E0,3.822222E2,1.9199998E2,4.182222E2,1.9866666E2,5.191111E2,3.9111107E1,4.9688885E2,5.1555553E1,7.599999E1,4.533333E2,5.164444E2,3.1711108E3,2.8595554E3,1.1142222E3,1.1279999E3,1.0399999E3,8.8222217E2,2.511111E2,9.484444E2,1.3644444E2,2.733333E2,4.8888885E1,2.7999998E1,6.2222218E1,6.8888885E2,8.177777E2,1.3093333E3,6.5999994E2,3.048889E2,1.3377777E2,1.8755554E3,2.9999997E2,4.218222E3,2.0395554E3],"tree_param":{"num_deleted":"0","num_feature":"27","num_nodes":"109","size_leaf_vector":"0"}},{"base_weights":[2.2753683E-1,-4.1244456E-1,8.764813E-1,1.4885013E0,-4.8017108E-1,-2.5123075E-1,1.1653657E0,-6.1224496E-1,1.4984934E0,-6.0281646E-1,6.9940734E-1,-4.598303E-1,1.4975932E0,6.4370155E-1,1.3353932E0,-7.1236897E-1,-3.2259625E-1,3.6356997E-1,1.4480652E0,-6.969639E-1,-1.683333E-1,3.1199175E-1,1.3954842E0,6.330205E-1,1.3933897E0,-7.252372E-1,-5.473738E-1,-5.8228105E-1,2.7756906E-1,-1.0919062E-2,6.9233406E-1,1.3691959E0,1.4895238E0,1.47812E0,-7.497334E-1,-4.665915E-2,-4.6549198E-1,-4.3311563E-1,5.8236456E-1,1.0642138E0,1.4703218E0,2.6988122E-1,1.4961439E0,1.068274E0,1.4400873E0,-7.49929E-1,-6.8436056E-1,-5.896029E-1,1.1730103E0,-5.9435177E-1,7.7057356E-1,-6.6261864E-1,9.215567E-1,2.0170057E-1,-4.1739136E-1,-2.3828925E-1,8.795445E-1,1.4835681E0,1.0566802E0,-5.9884142E-2,1.3622898E-1,-4.6879613E-1,2.7272725E-1,-5.1907825E-1,5.551597E-2,4.1715932E-1,1.4163332E0,3.117254E-1,1.4877784E0,1.4724234E0,1.0344825E-1,-4.4147205E-2,6.340326E-1,7.83704E-1,1.4968632E0,1.232708E0,1.466374E0],"categories":[],"categories_nodes":[],"categories_segments":[],"categories_sizes":[],"default_left":[1,1,1,1,1,1,1,0,0,1,1,1,0,1,1,1,1,1,1,1,1,1,1,1,1,1,1,1,1,1,1,1,0,0,0,1,1,1,1,1,1,1,0,1,1,0,0,0,0,0,0,0,0,0,0,0,0,0,0,0,0,0,0,0,0,0,0,0,0,0,0,0,0,0,0,0,0],"id":2,"left_children":[1,3,5,7,9,11,13,-1,-1,15,17,19,-1,21,23,25,27,29,31,33,35,37,39,41,43,45,47,49,51,53,55,57,-1,-1,-1,59,61,63,65,67,69,71,-1,73,75,-1,-1,-1,-1,-1,-1,-1,-1,-1,-1,-1,-1,-1,-1,-1,-1,-1,-1,-1,-1,-1,-1,-1,-1,-1,-1,-1,-1,-1,-1,-1,-1],"loss_changes":[2.3974453E4,3.7425571E3,9.337863E3,2.1910645E1,4.0605815E3,2.1332917E3,2.0229824E3,0E0,0E0,7.8020703E2,6.6416345E2,3.6096216E2,0E0,1.3987449E3,7.000762E2,3.8405273E1,1.1140835E3,2.2486302E2,6.3635254E-1,3.3168164E2,8.474929E1,7.84792E2,4.1013184E1,4.1155304E2,2.3976953E2,1.659668E1,9.705008E1,8.192749E1,1.3079535E3,7.395749E1,1.6965054E2,8.952698E0,0E0,0E0,0E0,4.0342097E0,1.7889252E0,4.3605713E1,3.931577E2,1.0156439E2,3.864502E0,1.05957794E2,0E0,2.4276758E2,7.394141E1,0E0,0E0,0E0,0E0,0E0,0E0,0E0,0E0,0E0,0E0,0E0,0E0,0E0,0E0,0E0,0E0,0E0,0E0,0E0,0E0,0E0,0E0,0E0,0E0,0E0,0E0,0E0,0E0,0E0,0E0,0E0,0E0],"parents":[2147483647,0,0,1,1,2,2,3,3,4,4,5,5,6,6,9,9,10,10,11,11,13,13,14,14,15,15,16,16,17,17,18,18,19,19,20,20,21,21,22,22,23,23,24,24,25,25,26,26,27,27,28,28,29,29,30,30,31,31,35,35,36,36,37,37,38,38,39,39,40,40,41,41,43,43,44,44],"right_children":[2,4,6,8,10,12,14,-1,-1,16,18,20,-1,22,24,26,28,30,32,34,36,38,40,42,44,46,48,50,52,54,56,58,-1,-1,-1,60,62,64,66,68,70,72,-1,74,76,-1,-1,-1,-1,-1,-1,-1,-1,-1,-1,-1,-1,-1,-1,-1,-1,-1,-1,-1,-1,-1,-1,-1,-1,-1,-1,-1,-1,-1,-1,-1,-1],"split_conditions":[3.5E0,5E-1,5E-1,5E-1,3.5E0,4.5E0,3.5E0,-1.836735E-1,4.4954804E-1,5E-1,4.5E0,3.5E0,4.4927797E-1,4.5E0,5E-1,3.5E0,3.5E0,3.5E0,4.5E0,5E-1,5.5E0,2.5E0,5E-1,4.5E0,2.5E0,5E-1,4.5E0,4.5E0,5E-1,5E-1,5E-1,5E-1,4.4685715E-1,4.43436E-1,-2.2492002E-1,8.5E0,2.89E2,3.5E0,4.5E0,4.5E0,7.9E1,5E-1,4.488432E-1,4.5E0,5E-1,-2.2497872E-1,-2.0530818E-1,-1.7688087E-1,3.519031E-1,-1.7830554E-1,2.3117207E-1,-1.987856E-1,2.7646703E-1,6.0510173E-2,-1.2521741E-1,-7.148678E-2,2.6386335E-1,4.4507045E-1,3.1700408E-1,-1.7965244E-2,4.0868696E-2,-1.4063884E-1,8.181818E-2,-1.5572348E-1,1.6654791E-2,1.251478E-1,4.2489997E-1,9.3517624E-2,4.4633356E-1,4.4172704E-1,3.1034475E-2,-1.3244162E-2,1.9020979E-1,2.351112E-1,4.4905898E-1,3.698124E-1,4.3991223E-1],"split_indices":[16,11,4,18,11,11,18,0,0,6,11,11,0,16,2,13,18,14,13,11,26,22,6,11,22,4,22,24,2,6,4,6,0,0,0,25,26,20,17,11,9,6,0,16,6,0,0,0,0,0,0,0,0,0,0,0,0,0,0,0,0,0,0,0,0,0,0,0,0,0,0,0,0,0,0,0,0],"split_type":[0,0,0,0,0,0,0,0,0,0,0,0,0,0,0,0,0,0,0,0,0,0,0,0,0,0,0,0,0,0,0,0,0,0,0,0,0,0,0,0,0,0,0,0,0,0,0,0,0,0,0,0,0,0,0,0,0,0,0,0,0,0,0,0,0,0,0,0,0,0,0,0,0,0,0,0,0],"sum_hessian":[5.772444E4,2.906311E4,2.8661332E4,9.99111E2,2.8063998E4,5.8448887E3,2.2816443E4,4.444444E0,9.946666E2,2.5421332E4,2.6426665E3,5.2226665E3,6.2222217E2,5.6097773E3,1.7206666E4,1.827511E4,7.1462217E3,1.8253333E3,8.173333E2,2.8791108E3,2.3435554E3,3.893333E3,1.7164443E3,1.3133333E3,1.5893332E4,1.6949777E4,1.3253333E3,4.9879995E3,2.1582222E3,8.537777E2,9.715555E2,2.933333E2,5.2399994E2,6.755555E1,2.8115554E3,1.6635554E3,6.7999994E2,1.0364443E3,2.8568887E3,3.1911108E2,1.3973333E3,9.2533325E2,3.8799997E2,1.999111E3,1.3894222E4,1.0555999E4,6.3937773E3,1.2942222E3,3.1111109E1,4.9444443E3,4.3555553E1,8.7733325E2,1.2808888E3,5.6088885E2,2.928889E2,1.6266666E2,8.0888885E2,2.1199998E2,8.133333E1,1.5519999E3,1.1155555E2,6.773333E2,2.6666665E0,8.8133325E2,1.551111E2,2.3857776E3,4.7111108E2,1.1555555E2,2.0355554E2,1.3951111E3,2.222222E0,4.973333E2,4.2799997E2,1.2031111E3,7.9599994E2,1.5684443E3,1.2325777E4],"tree_param":{"num_deleted":"0","num_feature":"27","num_nodes":"77","size_leaf_vector":"0"}},{"base_weights":[2.1217805E-1,6.314685E-1,-2.8542045E-1,8.441935E-1,2.367616E-1,2.1292762E-1,-5.507341E-1,-6.5019923E-1,8.8285977E-1,7.7684206E-1,6.7601507E-3,3.34856E-1,-6.71498E-1,-2.8440997E-1,-6.04605E-1,8.867297E-1,-6.6704404E-1,9.165452E-1,7.823817E-2,-7.030855E-1,8.2387424E-1,3.559716E-1,-2.4078622E-1,6.148615E-1,1.07051365E-1,4.6593142E-1,-3.8505992E-1,-3.6402938E-1,-6.3595176E-1,9.651702E-1,8.4141034E-1,3.067194E-1,-6.5110874E-1,9.813584E-1,5.695642E-1,8.7302107E-1,1.820461E-1,5.490686E-1,-3.169972E-1,-7.106902E-1,7.055257E-1,4.669406E-1,-1.2362279E-1,7.235641E-1,4.941207E-2,-2.2990815E-1,-5.916019E-1,-1.9700108E-1,-5.935967E-1,-2.3126526E-1,-6.4238805E-1,1.0095843E0,9.354715E-1,8.7967247E-1,5.339824E-1,5.844621E-1,1.2361506E-3,1.019264E0,6.454426E-1,8.120407E-1,2.3003504E-1,-6.853752E-1,9.0711E-1,4.2119557E-1,-2.4339259E-1,8.2096E-1,1.4719611E-1,-1.0941859E-1,-5.2921176E-1,9.934289E-1,5.6315696E-1,9.1512644E-1,2.6234487E-1,3.9522266E-1,-2.8635457E-1,-6.4879483E-1,8.1210524E-1,8.823678E-1,-2.1769926E-1,-1.2211129E-1,-5.5110437E-1,-4.4514382E-1,-6.6152436E-1,-1.6620468E-2,-4.5403466E-1,-6.025091E-1,7.2412056E-1,8.144683E-1,-3.2566574E-1,-4.8761728E-1,-6.560179E-1],"categories":[],"categories_nodes":[],"categories_segments":[],"categories_sizes":[],"default_left":[1,1,1,1,1,1,1,1,1,1,1,1,0,1,1,0,0,1,1,0,1,1,1,1,1,1,1,1,1,1,1,1,0,1,1,1,1,1,1,0,1,1,1,1,1,1,1,1,1,1,1,0,0,0,0,0,0,0,0,0,0,0,0,0,0,0,0,0,0,0,0,0,0,0,0,0,0,0,0,0,0,0,0,0,0,0,0,0,0,0,0],"id":3,"left_children":[1,3,5,7,9,11,13,15,17,19,21,23,-1,25,27,-1,-1,29,31,-1,33,35,37,39,41,43,45,47,49,51,53,55,-1,57,59,61,63,65,67,-1,69,71,73,75,77,79,81,83,85,87,89,-1,-1,-1,-1,-1,-1,-1,-1,-1,-1,-1,-1,-1,-1,-1,-1,-1,-1,-1,-1,-1,-1,-1,-1,-1,-1,-1,-1,-1,-1,-1,-1,-1,-1,-1,-1,-1,-1,-1,-1],"loss_changes":[1.2000284E4,2.6207031E3,3.4778245E3,1.1725615E3,1.3580669E3,9.857313E2,2.4609424E2,1.3850372E1,5.3581836E2,2.2785962E2,6.630003E2,5.1228705E2,0E0,2.1842006E2,1.07427246E2,0E0,0E0,6.8518555E1,1.3277493E2,0E0,1.26207275E2,2.859434E2,2.7033682E2,4.3352185E2,3.6784088E2,3.6689285E1,8.153262E1,6.307657E1,3.2746094E1,1.4244141E1,8.732617E1,5.1455917E1,0E0,2.4214111E1,9.966589E1,4.314972E1,2.4244669E2,4.3072166E1,1.802779E2,0E0,1.376919E2,1.5845502E2,2.2812843E2,2.6211075E1,2.9530252E1,5.037815E1,1.0894318E1,4.429155E1,8.581802E0,1.9937199E1,2.5902344E1,0E0,0E0,0E0,0E0,0E0,0E0,0E0,0E0,0E0,0E0,0E0,0E0,0E0,0E0,0E0,0E0,0E0,0E0,0E0,0E0,0E0,0E0,0E0,0E0,0E0,0E0,0E0,0E0,0E0,0E0,0E0,0E0,0E0,0E0,0E0,0E0,0E0,0E0,0E0,0E0],"parents":[2147483647,0,0,1,1,2,2,3,3,4,4,5,5,6,6,7,7,8,8,9,9,10,10,11,11,13,13,14,14,17,17,18,18,20,20,21,21,22,22,23,23,24,24,25,25,26,26,27,27,28,28,29,29,30,30,31,31,33,33,34,34,35,35,36,36,37,37,38,38,40,40,41,41,42,42,43,43,44,44,45,45,46,46,47,47,48,48,49,49,50,50],"right_children":[2,4,6,8,10,12,14,16,18,20,22,24,-1,26,28,-1,-1,30,32,-1,34,36,38,40,42,44,46,48,50,52,54,56,-1,58,60,62,64,66,68,-1,70,72,74,76,78,80,82,84,86,88,90,-1,-1,-1,-1,-1,-1,-1,-1,-1,-1,-1,-1,-1,-1,-1,-1,-1,-1,-1,-1,-1,-1,-1,-1,-1,-1,-1,-1,-1,-1,-1,-1,-1,-1,-1,-1,-1,-1,-1,-1],"split_conditions":[3.5E0,3.5E0,3.5E0,5E-1,3.5E0,4.5E0,2.5E0,5E-1,3.5E0,5E-1,3.5E0,2.5E0,-2.0144941E-1,3.5E0,2.5E0,2.6601893E-1,-2.0011322E-1,2.5E0,4.5E0,-2.1092565E-1,2.5E0,2.5E0,2.5E0,5E-1,2.5E0,4.5E0,4.5E0,4.5E0,1.5E0,5E-1,4.5E0,3.5E0,-1.9533263E-1,4.5E0,4.5E0,5E-1,2.5E0,2.5E0,2.5E0,-2.1320707E-1,1.5E0,3.5E0,2.5E0,5E-1,3.5E0,4.5E0,4.5E0,3.5E0,1.37E2,3.5E0,3.5E0,3.028753E-1,2.8064147E-1,2.6390174E-1,1.6019472E-1,1.7533864E-1,3.708452E-4,3.0577922E-1,1.936328E-1,2.4361221E-1,6.901051E-2,-2.0561257E-1,2.72133E-1,1.2635867E-1,-7.3017776E-2,2.46288E-1,4.4158835E-2,-3.2825578E-2,-1.5876353E-1,2.9802868E-1,1.689471E-1,2.7453795E-1,7.870346E-2,1.185668E-1,-8.590637E-2,-1.9463846E-1,2.4363159E-1,2.6471034E-1,-6.530978E-2,-3.6633387E-2,-1.6533132E-1,-1.3354315E-1,-1.9845732E-1,-4.986141E-3,-1.362104E-1,-1.8075272E-1,2.1723618E-1,2.4434051E-1,-9.7699724E-2,-1.4628519E-1,-1.9680537E-1],"split_indices":[16,18,18,11,21,11,20,18,11,11,20,19,0,15,22,0,0,24,11,0,13,22,19,11,24,21,24,18,15,4,22,14,0,23,18,11,13,11,13,0,18,11,20,11,12,21,16,12,26,23,21,0,0,0,0,0,0,0,0,0,0,0,0,0,0,0,0,0,0,0,0,0,0,0,0,0,0,0,0,0,0,0,0,0,0,0,0,0,0,0,0],"split_type":[0,0,0,0,0,0,0,0,0,0,0,0,0,0,0,0,0,0,0,0,0,0,0,0,0,0,0,0,0,0,0,0,0,0,0,0,0,0,0,0,0,0,0,0,0,0,0,0,0,0,0,0,0,0,0,0,0,0,0,0,0,0,0,0,0,0,0,0,0,0,0,0,0,0,0,0,0,0,0,0,0,0,0,0,0,0,0,0,0,0,0],"sum_hessian":[5.7515305E4,3.1213588E4,2.6301715E4,2.0281727E4,1.0931861E4,9.13789E3,1.7163824E4,5.1113922E2,1.9770588E4,3.2643245E3,7.667537E3,8.0313027E3,1.1065872E3,2.888769E3,1.4275056E4,4.9815183E0,5.061577E2,1.897602E4,7.945688E2,1.0011542E2,3.164209E3,3.1804568E3,4.48708E3,3.6020962E3,4.4292065E3,3.4123636E2,2.5475327E3,1.6470568E3,1.2627999E4,1.1513188E4,7.462831E3,6.0547284E2,1.8909595E2,1.9523417E3,1.2118673E3,7.99542E2,2.3809148E3,3.9430255E2,4.0927776E3,2.3016354E2,3.3719326E3,1.7296486E3,2.6995579E3,2.1037466E2,1.308617E2,1.4559525E3,1.0915802E3,9.544658E2,6.9259094E2,1.9827477E2,1.2429724E4,4.60038E3,6.912808E3,6.6351646E3,8.2766644E2,3.166574E2,2.8881543E2,1.7525459E3,1.9979576E2,7.061647E2,5.0570267E2,1.670611E1,7.828359E2,1.5241582E3,8.567566E2,2.3456326E2,1.5973927E2,2.069754E3,2.0230237E3,1.1137299E3,2.2582026E3,5.410205E2,1.188628E3,6.44199E2,2.055359E3,1.23667345E1,1.9800793E2,3.1215721E1,9.964598E1,1.0911359E3,3.6481662E2,3.551198E2,7.364604E2,5.614894E2,3.9297647E2,6.8847723E2,4.1137586E0,1.578513E1,1.8248964E2,1.0089994E3,1.1420725E4],"tree_param":{"num_deleted":"0","num_feature":"27","num_nodes":"91","size_leaf_vector":"0"}},{"base_weights":[-4.2747712E-1,-1.7059273E-1,-5.510536E-1,-5.051617E-1,2.4739131E-1,-3.8606006E-1,-6.130259E-1,-6.2302923E-1,-3.0249113E-1,-2.4379571E-1,4.5768747E-1,-6.0932046E-1,-1.0172802E-1,-6.4062726E-1,-4.9875295E-1,-6.5442514E-1,-5.0773114E-1,-5.735552E-1,-4.443166E-2,-5.325779E-1,1.9222332E-2,-8.670526E-2,5.9568155E-1,-6.6827655E-1,-5.4732835E-1,-3.4964454E-1,1.3733156E-1,-6.672802E-1,-5.7401145E-1,-2.372256E-1,-6.627998E-1,-6.717354E-1,-6.25889E-1,-6.5714496E-1,-3.7784803E-1,-6.3122827E-1,-3.638018E-1,-6.0358554E-1,2.0073093E-1,-6.5576774E-1,-4.0790635E-1,-2.908345E-1,3.2985032E-1,-3.6311334E-1,3.0546454E-1,-7.688887E-2,6.9564766E-1,-6.3609636E-1,-3.903662E-1,-5.345445E-1,-1.14040956E-1,2.3534057E-1,-6.6548914E-1,-6.7081875E-1,-6.383992E-1,-5.249877E-1,-6.6986924E-1,-6.517511E-1,1.22690134E-1,-6.458924E-1,-5.1452243E-1,-6.644256E-1,-5.114101E-1,-4.91824E-1,4.4986967E-2,-6.458388E-1,-4.2337778E-1,-5.506801E-1,-8.463979E-2,-6.4770854E-1,-3.3199027E-2,-5.8483535E-1,3.131399E-1,-6.675384E-1,-4.781745E-1,-6.009072E-1,-2.5687847E-1,-4.6979582E-1,-2.7402446E-2,-2.645719E-1,4.6407825E-1,-5.912989E-1,-1.7932875E-1,2.400912E-2,6.7136514E-1,-3.4844208E-1,4.056689E-1,7.5256526E-1,-6.625231E-1,-6.457617E-1,-5.112438E-1,-5.4417044E-1,-2.1066464E-1,-5.653015E-1,-1.20326795E-1,-4.861868E-1,3.5310276E-2,-2.8457773E-1,3.536671E-1,-6.6931665E-1,-5.770898E-1,-4.772778E-1,-6.473465E-1,-6.693023E-1,-5.1770675E-1,-9.632581E-2,4.44819E-1],"categories":[],"categories_nodes":[],"categories_segments":[],"categories_sizes":[],"default_left":[1,1,1,1,1,1,1,1,1,1,1,1,1,1,1,1,1,1,1,1,1,1,1,0,1,1,1,1,1,1,0,0,1,1,1,1,1,1,1,1,1,1,1,1,1,1,1,1,1,1,1,1,0,0,1,1,0,1,1,0,0,0,0,0,0,0,0,0,0,0,0,0,0,0,0,0,0,0,0,0,0,0,0,0,0,0,0,0,0,0,0,0,0,0,0,0,0,0,0,0,0,0,0,0,0,0,0],"id":4,"left_children":[1,3,5,7,9,11,13,15,17,19,21,23,25,27,29,31,33,35,37,39,41,43,45,-1,47,49,51,53,55,57,-1,-1,59,61,63,65,67,69,71,73,75,77,79,81,83,85,87,89,91,93,95,97,-1,-1,99,101,-1,103,105,-1,-1,-1,-1,-1,-1,-1,-1,-1,-1,-1,-1,-1,-1,-1,-1,-1,-1,-1,-1,-1,-1,-1,-1,-1,-1,-1,-1,-1,-1,-1,-1,-1,-1,-1,-1,-1,-1,-1,-1,-1,-1,-1,-1,-1,-1,-1,-1],"loss_changes":[1.6414883E3,2.349205E3,3.5676953E2,2.226936E2,7.7158044E2,6.052921E2,7.9731445E1,2.1019287E1,2.4010248E2,1.7012288E2,3.9294177E2,1.9156616E1,2.4870715E2,3.5905273E1,2.1187256E2,1.8679199E0,2.4336609E1,2.0022705E1,2.4134435E2,1.6128601E1,1.1307774E2,1.1485004E2,2.805868E2,0E0,3.6106995E1,8.967563E1,1.6827728E2,1.0639648E0,2.7129028E1,2.8453372E2,0E0,0E0,3.5968628E0,2.838745E-1,3.2796837E1,3.710022E0,1.891198E1,1.3483536E1,1.0827373E2,7.998352E-1,1.5388878E1,2.7689499E1,4.6915886E1,2.5951035E1,4.5106766E1,7.10102E1,2.8131677E2,1.6791992E0,2.60085E1,1.4632507E1,5.0430927E1,1.1729273E2,0E0,0E0,2.671936E0,2.2304688E1,0E0,1.7384644E0,7.210144E1,0E0,0E0,0E0,0E0,0E0,0E0,0E0,0E0,0E0,0E0,0E0,0E0,0E0,0E0,0E0,0E0,0E0,0E0,0E0,0E0,0E0,0E0,0E0,0E0,0E0,0E0,0E0,0E0,0E0,0E0,0E0,0E0,0E0,0E0,0E0,0E0,0E0,0E0,0E0,0E0,0E0,0E0,0E0,0E0,0E0,0E0,0E0,0E0],"parents":[2147483647,0,0,1,1,2,2,3,3,4,4,5,5,6,6,7,7,8,8,9,9,10,10,11,11,12,12,13,13,14,14,15,15,16,16,17,17,18,18,19,19,20,20,21,21,22,22,24,24,25,25,26,26,27,27,28,28,29,29,32,32,33,33,34,34,35,35,36,36,37,37,38,38,39,39,40,40,41,41,42,42,43,43,44,44,45,45,46,46,47,47,48,48,49,49,50,50,51,51,54,54,55,55,57,57,58,58],"right_children":[2,4,6,8,10,12,14,16,18,20,22,24,26,28,30,32,34,36,38,40,42,44,46,-1,48,50,52,54,56,58,-1,-1,60,62,64,66,68,70,72,74,76,78,80,82,84,86,88,90,92,94,96,98,-1,-1,100,102,-1,104,106,-1,-1,-1,-1,-1,-1,-1,-1,-1,-1,-1,-1,-1,-1,-1,-1,-1,-1,-1,-1,-1,-1,-1,-1,-1,-1,-1,-1,-1,-1,-1,-1,-1,-1,-1,-1,-1,-1,-1,-1,-1,-1,-1,-1,-1,-1,-1,-1],"split_conditions":[5E-1,3.5E0,5E-1,2.5E0,3.5E0,3.5E0,4.5E0,3.5E0,2.5E0,2.5E0,1.5E0,2.5E0,2.5E0,3.5E0,4.5E0,2.5E0,1.5E0,4.5E0,3.5E0,4.5E0,4.5E0,4.5E0,2.5E0,-2.0048298E-1,2.5E0,4.5E0,4.5E0,3.5E0,4.5E0,2.5E0,-1.9883995E-1,-2.0152064E-1,4.5E0,4.5E0,4.5E0,4.5E0,3.5E0,4.5E0,2.5E0,4.5E0,1.5E0,3.5E0,2.5E0,3.5E0,4.5E0,4.5E0,4.5E0,4.5E0,3.5E0,4.5E0,2.5E0,2.5E0,-1.9964676E-1,-2.0124564E-1,2.5E0,4.5E0,-2.0096079E-1,2.5E0,3.5E0,-1.9376773E-1,-1.5435673E-1,-1.9932769E-1,-1.5342304E-1,-1.475472E-1,1.3496091E-2,-1.9375165E-1,-1.2701334E-1,-1.6520403E-1,-2.5391938E-2,-1.9431257E-1,-9.959709E-3,-1.7545061E-1,9.394197E-2,-2.0026153E-1,-1.4345236E-1,-1.8027216E-1,-7.7063546E-2,-1.4093876E-1,-8.220734E-3,-7.937157E-2,1.3922349E-1,-1.7738967E-1,-5.3798627E-2,7.202736E-3,2.0140955E-1,-1.0453263E-1,1.2170068E-1,2.257696E-1,-1.9875693E-1,-1.9372852E-1,-1.5337315E-1,-1.6325113E-1,-6.319939E-2,-1.6959044E-1,-3.609804E-2,-1.4585605E-1,1.0593083E-2,-8.537332E-2,1.06100135E-1,-2.0079501E-1,-1.7312694E-1,-1.4318334E-1,-1.9420396E-1,-2.0079069E-1,-1.5531203E-1,-2.8897744E-2,1.3344571E-1],"split_indices":[4,18,2,18,12,24,14,13,13,13,13,12,12,11,11,11,18,22,12,18,18,17,22,0,24,17,11,14,16,11,0,0,19,24,22,14,20,22,22,22,13,20,21,22,23,24,11,14,22,14,22,13,0,0,11,23,0,18,20,0,0,0,0,0,0,0,0,0,0,0,0,0,0,0,0,0,0,0,0,0,0,0,0,0,0,0,0,0,0,0,0,0,0,0,0,0,0,0,0,0,0,0,0,0,0,0,0],"split_type":[0,0,0,0,0,0,0,0,0,0,0,0,0,0,0,0,0,0,0,0,0,0,0,0,0,0,0,0,0,0,0,0,0,0,0,0,0,0,0,0,0,0,0,0,0,0,0,0,0,0,0,0,0,0,0,0,0,0,0,0,0,0,0,0,0,0,0,0,0,0,0,0,0,0,0,0,0,0,0,0,0,0,0,0,0,0,0,0,0,0,0,0,0,0,0,0,0,0,0,0,0,0,0,0,0,0,0],"sum_hessian":[5.1710758E4,1.6796805E4,3.4913953E4,9.329188E3,7.467615E3,9.535125E3,2.5378828E4,5.897369E3,3.4318193E3,2.2386528E3,5.2289624E3,5.3405376E3,4.194588E3,2.043772E4,4.9411064E3,4.63152E3,1.2658491E3,1.6731405E3,1.758679E3,1.0665754E3,1.1720774E3,1.0574897E3,4.1714727E3,2.7322844E3,2.6082532E3,2.058922E3,2.1356658E3,1.4590895E4,5.846827E3,1.9056001E3,3.0355066E3,2.8687637E3,1.7627561E3,5.867775E2,6.790716E2,1.3107356E3,3.6240485E2,5.3561487E2,1.2230641E3,5.343327E2,5.3224274E2,5.8660986E2,5.854675E2,6.203385E2,4.3715128E2,5.3981793E2,3.6316548E3,1.6640933E3,9.4415985E2,1.1528807E3,9.060414E2,1.9039382E3,2.3172745E2,1.297853E4,1.6123638E3,3.8727134E3,1.9741136E3,8.8523645E2,1.0203636E3,1.4902767E3,2.724793E2,5.55468E2,3.1309486E1,5.3476227E2,1.4430934E2,1.222682E3,8.805364E1,2.165009E2,1.4590395E2,4.9703088E2,3.8583996E1,1.5257762E2,1.0704865E3,4.9853183E2,3.58009E1,2.323458E2,2.9989694E2,3.4884216E2,2.3776772E2,1.0767274E2,4.777948E2,2.7575092E2,3.4458762E2,2.4769034E2,1.8946094E2,3.4560892E2,1.9420905E2,3.4860105E3,1.4564426E2,1.5406525E3,1.2344077E2,5.0764493E2,4.365149E2,1.0728533E3,8.002748E1,2.5883475E2,6.4720667E2,3.527176E2,1.5512206E3,1.0652544E3,5.471094E2,2.789815E3,1.0828986E3,7.7921625E2,1.0602024E2,6.0781213E2,4.1255145E2],"tree_param":{"num_deleted":"0","num_feature":"27","num_nodes":"107","size_leaf_vector":"0"}},{"base_weights":[1.737795E-1,-3.4668422E-1,6.206484E-1,-4.4886217E-1,5.067169E-1,-2.1091044E-1,8.0251807E-1,1.0392271E0,-5.231896E-1,2.6881042E-1,9.982356E-1,-3.925006E-1,1.0371312E0,2.5179145E-1,8.6711705E-1,-5.470018E-1,1.0453357E0,-6.329582E-1,-2.5943244E-1,-2.345293E-2,5.096781E-1,1.0448866E0,9.48308E-1,-6.279887E-1,-1.2927347E-1,-3.1686348E-1,6.225472E-1,4.023726E-1,9.155304E-1,1.0100048E0,1.0965613E0,-6.47162E-1,-4.544151E-1,-4.9121863E-1,2.0355968E-1,1.5924905E-1,-3.9058992E-1,6.8111724E-1,-1.8561384E-1,5.6097126E-1,1.0246688E0,1.0659491E0,-6.8025535E-1,-2.1561282E-2,-4.0545627E-1,-4.954215E-1,8.9160144E-1,4.0769628E-1,9.8304015E-1,1.3557443E-1,1.023571E0,4.5175126E-1,9.48218E-1,-6.740354E-1,-6.032631E-1,-4.9747118E-1,9.8552984E-1,-3.9576745E-1,-6.672963E-1,-6.0027915E-1,6.6060627E-1,-1.515438E-1,4.851485E-1,7.474004E-1,-6.3192624E-1,-1.8802483E-1,8.3261776E-1,1.2067669E-1,-5.3720206E-1,6.1494675E-3,9.271429E-1,-3.3397794E-2,1.5997285E-1,-4.087106E-1,2.657171E-1,-3.8970158E-2,-6.396118E-1,9.749294E-1,5.168781E-1,2.241853E-1,7.4321204E-1,9.8607284E-1,1.8397672E-1,-6.609938E-1,2.6759145E-1,-4.849655E-2,8.43686E-1,6.539113E-1,9.790819E-1],"categories":[],"categories_nodes":[],"categories_segments":[],"categories_sizes":[],"default_left":[1,1,1,1,1,1,1,1,1,1,1,1,0,1,1,0,1,1,1,1,1,0,1,1,1,1,1,1,1,0,0,1,1,1,1,1,1,1,1,1,0,0,0,1,1,1,1,1,1,1,0,1,1,0,0,0,0,0,0,0,0,0,0,0,0,0,0,0,0,0,0,0,0,0,0,0,0,0,0,0,0,0,0,0,0,0,0,0,0],"id":5,"left_children":[1,3,5,7,9,11,13,15,17,19,21,23,-1,25,27,-1,29,31,33,35,37,-1,39,41,43,45,47,49,51,-1,-1,53,55,57,59,61,63,65,67,69,-1,-1,-1,71,73,75,77,79,81,83,-1,85,87,-1,-1,-1,-1,-1,-1,-1,-1,-1,-1,-1,-1,-1,-1,-1,-1,-1,-1,-1,-1,-1,-1,-1,-1,-1,-1,-1,-1,-1,-1,-1,-1,-1,-1,-1,-1],"loss_changes":[1.3252489E4,2.2955576E3,4.6366943E3,2.6007583E3,3.289198E2,1.2474764E3,8.947461E2,1.1411499E1,6.481094E2,1.3364784E2,1.1467896E0,2.9772888E2,0E0,5.57296E2,5.0620703E2,0E0,9.099121E-1,3.980078E1,7.0642847E2,5.7655254E1,1.2417908E2,0E0,1.2857758E1,2.2521411E2,6.7515305E1,2.2561517E2,1.23511475E2,3.5219815E2,3.0867773E2,0E0,0E0,1.6868652E1,7.2931885E1,7.34563E1,8.073643E2,5.8214684E1,7.8907E1,1.1011493E2,2.2317238E1,1.5637316E1,0E0,0E0,0E0,3.5164483E0,1.4995117E0,5.9856445E1,3.7019424E0,6.16584E1,1.2647095E0,1.5669093E2,0E0,2.6362665E2,1.7236719E2,0E0,0E0,0E0,0E0,0E0,0E0,0E0,0E0,0E0,0E0,0E0,0E0,0E0,0E0,0E0,0E0,0E0,0E0,0E0,0E0,0E0,0E0,0E0,0E0,0E0,0E0,0E0,0E0,0E0,0E0,0E0,0E0,0E0,0E0,0E0,0E0],"parents":[2147483647,0,0,1,1,2,2,3,3,4,4,5,5,6,6,7,7,8,8,9,9,10,10,11,11,13,13,14,14,16,16,17,17,18,18,19,19,20,20,22,22,23,23,24,24,25,25,26,26,27,27,28,28,31,31,32,32,33,33,34,34,35,35,36,36,37,37,38,38,39,39,43,43,44,44,45,45,46,46,47,47,48,48,49,49,51,51,52,52],"right_children":[2,4,6,8,10,12,14,16,18,20,22,24,-1,26,28,-1,30,32,34,36,38,-1,40,42,44,46,48,50,52,-1,-1,54,56,58,60,62,64,66,68,70,-1,-1,-1,72,74,76,78,80,82,84,-1,86,88,-1,-1,-1,-1,-1,-1,-1,-1,-1,-1,-1,-1,-1,-1,-1,-1,-1,-1,-1,-1,-1,-1,-1,-1,-1,-1,-1,-1,-1,-1,-1,-1,-1,-1,-1,-1],"split_conditions":[3.5E0,3.5E0,5E-1,5E-1,4.5E0,4.5E0,2.5E0,5E-1,5E-1,3.5E0,4.5E0,3.5E0,3.1113937E-1,3.5E0,5E-1,-1.6410054E-1,3.5E0,3.5E0,3.5E0,5E-1,4.5E0,3.1346598E-1,4.5E0,5E-1,5.5E0,4.5E0,4.5E0,4.5E0,3.5E0,3.0300143E-1,3.289684E-1,5E-1,4.5E0,3.5E0,5E-1,5E-1,5E-1,5E-1,5E-1,4.5E0,3.0740064E-1,3.1978473E-1,-2.0407662E-1,5E-1,2.89E2,2.5E0,1.45E1,4.5E0,1.185E2,3.5E0,3.0707133E-1,3.5E0,2.5E0,-2.0221062E-1,-1.8097892E-1,-1.4924136E-1,2.9565898E-1,-1.1873024E-1,-2.0018889E-1,-1.8008375E-1,1.9818188E-1,-4.546314E-2,1.4554456E-1,2.2422013E-1,-1.8957788E-1,-5.640745E-2,2.4978533E-1,3.620301E-2,-1.6116062E-1,1.8448404E-3,2.781429E-1,-1.0019339E-2,4.7991857E-2,-1.22613184E-1,7.971513E-2,-1.1691048E-2,-1.9188355E-1,2.9247883E-1,1.5506345E-1,6.7255594E-2,2.2296362E-1,2.9582188E-1,5.519302E-2,-1.9829816E-1,8.0277435E-2,-1.4548966E-2,2.5310582E-1,1.961734E-1,2.937246E-1],"split_indices":[16,11,4,11,11,11,24,18,6,14,19,11,0,23,2,0,18,13,18,6,12,0,20,11,26,16,16,11,17,0,0,4,22,14,2,4,2,4,6,13,0,0,0,6,26,17,26,21,26,11,0,23,22,0,0,0,0,0,0,0,0,0,0,0,0,0,0,0,0,0,0,0,0,0,0,0,0,0,0,0,0,0,0,0,0,0,0,0,0],"split_type":[0,0,0,0,0,0,0,0,0,0,0,0,0,0,0,0,0,0,0,0,0,0,0,0,0,0,0,0,0,0,0,0,0,0,0,0,0,0,0,0,0,0,0,0,0,0,0,0,0,0,0,0,0,0,0,0,0,0,0,0,0,0,0,0,0,0,0,0,0,0,0,0,0,0,0,0,0,0,0,0,0,0,0,0,0,0,0,0,0],"sum_hessian":[5.697866E4,2.6321959E4,3.06567E4,2.3507834E4,2.8141255E3,5.5016157E3,2.5155084E4,1.1176992E3,2.2390135E4,1.8973236E3,9.1680176E2,4.8034053E3,6.9821045E2,2.6413816E3,2.2513701E4,3.948062E0,1.1137511E3,1.5809321E4,6.580814E3,8.5761536E2,1.0397083E3,4.6365085E2,4.5315094E2,2.5345564E3,2.2688489E3,1.0425272E3,1.5988542E3,2.1249102E3,2.0388791E4,6.713974E2,4.4235373E2,1.4641879E4,1.167443E3,4.3853364E3,2.1954773E3,5.730227E2,2.8459265E2,8.340707E2,2.0563754E2,7.599851E1,3.7715244E2,7.528276E1,2.4592737E3,1.6330371E3,6.3581177E2,9.088319E2,1.3369539E2,1.0031286E3,5.9572565E2,1.4873342E3,6.3757605E2,1.3433829E3,1.9045408E4,9.073222E3,5.5686567E3,1.134184E3,3.325894E1,2.8458547E3,1.5394818E3,7.9570447E2,1.3997727E3,2.9358316E2,2.7943954E2,4.9427364E1,2.351653E2,1.23770706E2,7.103E2,1.1024927E2,9.538828E1,3.062E1,4.537851E1,1.5338425E3,9.9194626E1,6.33133E2,2.67882E0,2.184795E2,6.9035236E2,1.08063385E2,2.5631998E1,6.495333E2,3.535953E2,5.9324005E2,2.4855757E0,2.1088474E2,1.2764495E3,5.905315E2,7.528515E2,1.8098219E3,1.7235586E4],"tree_param":{"num_deleted":"0","num_feature":"27","num_nodes":"89","size_leaf_vector":"0"}},{"base_weights":[1.7378938E-1,4.9641484E-1,-2.4006625E-1,6.635056E-1,1.9115682E-1,1.7187339E-1,-4.892858E-1,-5.987388E-1,6.9116694E-1,6.579642E-1,6.1995448E-3,2.6249972E-1,-6.213521E-1,-2.9584247E-1,-5.6933814E-1,7.1414495E-1,-6.158831E-1,7.170333E-1,7.305131E-2,-6.197982E-1,6.8959033E-1,2.9471618E-1,-2.1329038E-1,6.6907746E-1,1.4735757E-1,2.5234264E-1,-3.7817582E-1,-3.6392555E-1,-5.945121E-1,7.3780024E-1,5.6142753E-1,2.4317713E-1,-5.963656E-1,7.950293E-1,5.356602E-1,4.788559E-1,-5.0620995E-2,-2.0953672E-2,-4.3192363E-1,-7.722175E-1,6.8989605E-1,3.9055917E-1,-1.2915298E-1,4.7207296E-1,-1.2752078E-1,-2.6123005E-1,-5.8006656E-1,-2.1620652E-1,-5.7873315E-1,-2.7151665E-1,-6.001757E-1,7.416184E-1,1.1005359E-1,5.8752745E-1,-7.032154E-1,4.337578E-1,-5.8344122E-2,8.454303E-1,7.144746E-1,7.028028E-1,1.9970173E-1,-7.253607E-1,5.275826E-1,6.5549827E-1,-1.9758639E-1,2.078394E-1,-3.0069757E-1,1.6168149E-1,-4.7463682E-1,7.402256E-1,4.927621E-1,6.1432904E-1,1.4504863E-1,3.594914E-1,-2.786528E-1,1.0285815E0,3.4901047E-1,5.388941E-1,-3.1757757E-1,7.199231E-2,-3.8207963E-1,-1.3138053E-1,-6.031382E-1,-5.421136E-2,-4.7448936E-1,-5.908404E-1,5.7277966E-1,7.9713655E-1,-3.3313975E-1,-4.5795473E-1,-6.0918444E-1],"categories":[],"categories_nodes":[],"categories_segments":[],"categories_sizes":[],"default_left":[1,1,1,1,1,1,1,1,1,1,1,1,0,1,1,0,0,1,1,0,1,1,1,1,1,1,1,1,1,1,1,1,0,1,1,1,1,1,1,0,1,1,1,1,1,1,1,1,1,1,1,0,0,0,0,0,0,0,0,0,0,0,0,0,0,0,0,0,0,0,0,0,0,0,0,0,0,0,0,0,0,0,0,0,0,0,0,0,0,0,0],"id":6,"left_children":[1,3,5,7,9,11,13,15,17,19,21,23,-1,25,27,-1,-1,29,31,-1,33,35,37,39,41,43,45,47,49,51,53,55,-1,57,59,61,63,65,67,-1,69,71,73,75,77,79,81,83,85,87,89,-1,-1,-1,-1,-1,-1,-1,-1,-1,-1,-1,-1,-1,-1,-1,-1,-1,-1,-1,-1,-1,-1,-1,-1,-1,-1,-1,-1,-1,-1,-1,-1,-1,-1,-1,-1,-1,-1,-1,-1],"loss_changes":[7.181761E3,1.5415293E3,2.4191147E3,6.824072E2,9.232561E2,6.3870447E2,2.2717822E2,9.88002E0,3.0555566E2,1.230553E2,4.851329E2,3.7312695E2,0E0,1.9413846E2,5.347412E1,0E0,0E0,5.8871094E1,8.770745E1,0E0,4.7643677E1,2.105039E2,1.8295128E2,5.331958E1,4.1794568E2,4.6968994E1,8.811011E1,3.59252E1,1.6754395E1,3.870703E1,7.185315E1,3.5295227E1,0E0,6.524048E0,6.764017E1,1.27062195E2,1.19680756E2,1.4827515E2,5.170401E1,0E0,1.6846313E1,1.8156387E2,2.1259021E2,2.4039566E1,2.6356277E1,9.5423935E1,1.4106384E1,2.8207424E1,6.784195E0,1.0880388E1,1.1364746E1,0E0,0E0,0E0,0E0,0E0,0E0,0E0,0E0,0E0,0E0,0E0,0E0,0E0,0E0,0E0,0E0,0E0,0E0,0E0,0E0,0E0,0E0,0E0,0E0,0E0,0E0,0E0,0E0,0E0,0E0,0E0,0E0,0E0,0E0,0E0,0E0,0E0,0E0,0E0,0E0],"parents":[2147483647,0,0,1,1,2,2,3,3,4,4,5,5,6,6,7,7,8,8,9,9,10,10,11,11,13,13,14,14,17,17,18,18,20,20,21,21,22,22,23,23,24,24,25,25,26,26,27,27,28,28,29,29,30,30,31,31,33,33,34,34,35,35,36,36,37,37,38,38,40,40,41,41,42,42,43,43,44,44,45,45,46,46,47,47,48,48,49,49,50,50],"right_children":[2,4,6,8,10,12,14,16,18,20,22,24,-1,26,28,-1,-1,30,32,-1,34,36,38,40,42,44,46,48,50,52,54,56,-1,58,60,62,64,66,68,-1,70,72,74,76,78,80,82,84,86,88,90,-1,-1,-1,-1,-1,-1,-1,-1,-1,-1,-1,-1,-1,-1,-1,-1,-1,-1,-1,-1,-1,-1,-1,-1,-1,-1,-1,-1,-1,-1,-1,-1,-1,-1,-1,-1,-1,-1,-1,-1],"split_conditions":[3.5E0,3.5E0,3.5E0,5E-1,3.5E0,4.5E0,3.5E0,5E-1,3.5E0,5E-1,3.5E0,2.5E0,-1.8640563E-1,3.5E0,2.5E0,2.1424349E-1,-1.8476494E-1,4.5E0,4.5E0,-1.8593946E-1,2.5E0,4.5E0,2.5E0,5E-1,5E-1,4.5E0,4.5E0,4.5E0,1.5E0,4.5E0,3.5E0,5E-1,-1.7890967E-1,4.5E0,4.5E0,5E-1,2.5E0,4.5E0,2.5E0,-2.3166527E-1,3.5E0,3.5E0,2.5E0,2.5E0,3.5E0,2.5E0,3.5E0,3.5E0,1.37E2,5E-1,3.5E0,2.2248553E-1,3.301608E-2,1.7625824E-1,-2.1096464E-1,1.3012736E-1,-1.7503237E-2,2.5362912E-1,2.143424E-1,2.1084084E-1,5.991052E-2,-2.1760821E-1,1.5827478E-1,1.9664949E-1,-5.9275918E-2,6.2351823E-2,-9.0209275E-2,4.850445E-2,-1.4239106E-1,2.220677E-1,1.4782864E-1,1.8429872E-1,4.351459E-2,1.0784743E-1,-8.359584E-2,3.0857447E-1,1.0470314E-1,1.6166824E-1,-9.527328E-2,2.1597693E-2,-1.146239E-1,-3.941416E-2,-1.8094146E-1,-1.6263409E-2,-1.4234681E-1,-1.7725213E-1,1.718339E-1,2.3914097E-1,-9.994193E-2,-1.3738643E-1,-1.8275534E-1],"split_indices":[16,18,18,11,23,11,20,18,11,11,20,22,0,15,22,0,0,22,11,0,11,17,13,11,6,21,16,18,15,24,13,6,0,17,17,11,19,18,19,0,20,11,24,24,17,19,24,14,26,2,23,0,0,0,0,0,0,0,0,0,0,0,0,0,0,0,0,0,0,0,0,0,0,0,0,0,0,0,0,0,0,0,0,0,0,0,0,0,0,0,0],"split_type":[0,0,0,0,0,0,0,0,0,0,0,0,0,0,0,0,0,0,0,0,0,0,0,0,0,0,0,0,0,0,0,0,0,0,0,0,0,0,0,0,0,0,0,0,0,0,0,0,0,0,0,0,0,0,0,0,0,0,0,0,0,0,0,0,0,0,0,0,0,0,0,0,0,0,0,0,0,0,0,0,0,0,0,0,0,0,0,0,0,0,0],"sum_hessian":[5.3785863E4,3.022413E4,2.3561734E4,1.9531754E4,1.0692377E4,8.881556E3,1.4680179E4,4.1840457E2,1.9113348E4,3.0335486E3,7.6588286E3,7.97148E3,9.100758E2,4.298272E3,1.0381907E4,4.8692684E0,4.1353528E2,1.8345482E4,7.678665E2,7.282107E1,2.9607275E3,3.3089346E3,4.349894E3,1.7582222E3,6.213258E3,5.610006E2,3.7372715E3,1.1351176E3,9.24679E3,1.61821E4,2.163382E3,6.1277295E2,1.5509357E2,1.7546581E3,1.2060695E3,2.157912E3,1.1510225E3,2.3146973E3,2.0351967E3,2.4520918E1,1.7337013E3,3.3055168E3,2.907741E3,3.5525955E2,2.0574109E2,2.367933E3,1.3693383E3,6.737792E2,4.6133844E2,1.6018799E2,9.086602E3,1.608409E4,9.800984E1,2.1201611E3,4.322088E1,3.7519022E2,2.3758272E2,1.0735009E3,6.811573E2,8.046543E2,4.0141516E2,8.3380714E1,2.0745315E3,1.976966E2,9.533259E2,1.2734459E3,1.0412513E3,1.3642665E2,1.89877E3,1.3789037E3,3.5479767E2,1.7285409E3,1.576976E3,6.808754E2,2.2268655E3,6.300094E1,2.922586E2,4.5248028E1,1.6049306E2,6.303244E2,1.7376088E3,6.729582E1,1.3020424E3,4.1481613E2,2.5896304E2,4.570201E2,4.318314E0,8.082772E0,1.5210521E2,5.443746E2,8.542227E3],"tree_param":{"num_deleted":"0","num_feature":"27","num_nodes":"91","size_leaf_vector":"0"}},{"base_weights":[-3.7109497E-1,-1.4016943E-1,-4.9035442E-1,-4.4371632E-1,1.9699714E-1,-3.2962853E-1,-5.5476904E-1,-5.6652874E-1,-2.4969551E-1,-2.1227553E-1,3.6213422E-1,-4.6282127E-1,9.311494E-2,-5.8566296E-1,-4.3081442E-1,-6.01135E-1,-4.4724953E-1,-5.164582E-1,-1.9833446E-2,-4.7227448E-1,-2.0650835E-3,-7.4983E-2,4.694563E-1,-5.510415E-1,-2.6043957E-1,-2.862534E-1,2.4231613E-1,-6.1702824E-1,-5.1199025E-1,-2.041944E-1,-6.1016506E-1,-6.2054026E-1,-5.658099E-1,-6.08115E-1,-3.159141E-1,-5.7730883E-1,-3.1535518E-1,-5.5252284E-1,1.8429768E-1,-6.082785E-1,-3.4286073E-1,-2.626044E-1,2.4310744E-1,-3.8462073E-1,1.9858244E-1,-9.319606E-2,5.536707E-1,-6.186728E-1,-4.8218864E-1,-4.9499938E-1,-5.5872265E-2,-4.3402156E-1,-6.568637E-2,3.0358392E-1,-6.111694E-1,-6.211213E-1,-5.844107E-1,-4.589086E-1,-6.2020946E-1,-6.0350496E-1,1.095953E-1,-5.599137E-1,-6.1428696E-1,-6.028457E-1,-4.8782468E-1,-6.168941E-1,-4.3564853E-1,-6.361418E-1,-1.622889E-1,-5.939124E-1,-3.52669E-1,-3.8919434E-1,3.466933E-1,-5.994402E-1,-2.2146426E-2,-1.2117796E-1,4.040682E-1,-6.1593115E-1,-3.0156273E-1,-4.7423252E-1,-9.966192E-2,-4.1159263E-1,2.512169E-2,-3.4852076E-1,3.423705E-1,-5.3401345E-1,-8.1801176E-2,-4.269267E-1,3.2236555E-1,-3.5059637E-1,2.9651102E-1,5.9323424E-1,-6.127682E-1,-5.861264E-1,-3.2728854E-1,-6.483163E-1,-4.3051195E-1,-4.1734448E-1,7.024416E-2,-5.4870766E-1,-9.8553225E-2,7.118173E-2,-6.246774E-1,3.7153773E-2,4.6245676E-1,-6.1909664E-1,-5.24799E-1,-4.197701E-1,-6.365241E-1,-6.2099373E-1,-5.349025E-1,-4.5921916E-1,1.9640826E-1,-3.489534E-1,-6.216596E-1],"categories":[],"categories_nodes":[],"categories_segments":[],"categories_sizes":[],"default_left":[1,1,1,1,1,1,1,1,1,1,1,1,1,1,1,1,1,1,1,1,1,1,1,1,1,1,1,1,1,1,1,0,1,1,1,1,1,1,1,1,1,1,1,1,1,1,1,0,1,1,1,1,1,1,0,0,1,1,0,1,1,1,0,0,0,0,0,0,0,0,0,0,0,0,0,0,0,0,0,0,0,0,0,0,0,0,0,0,0,0,0,0,0,0,0,0,0,0,0,0,0,0,0,0,0,0,0,0,0,0,0,0,0,0,0],"id":7,"left_children":[1,3,5,7,9,11,13,15,17,19,21,23,25,27,29,31,33,35,37,39,41,43,45,47,49,51,53,55,57,59,61,-1,63,65,67,69,71,73,75,77,79,81,83,85,87,89,91,-1,93,95,97,99,101,103,-1,-1,105,107,-1,109,111,113,-1,-1,-1,-1,-1,-1,-1,-1,-1,-1,-1,-1,-1,-1,-1,-1,-1,-1,-1,-1,-1,-1,-1,-1,-1,-1,-1,-1,-1,-1,-1,-1,-1,-1,-1,-1,-1,-1,-1,-1,-1,-1,-1,-1,-1,-1,-1,-1,-1,-1,-1,-1,-1],"loss_changes":[1.2476968E3,1.5794176E3,3.0913623E2,1.9336267E2,4.9423172E2,4.814922E2,8.141992E1,2.0255371E1,1.9312006E2,1.1491612E2,2.4444263E2,1.1594653E2,1.1606944E2,3.912793E1,1.729732E2,2.2888184E0,2.3514236E1,1.765683E1,1.8418108E2,1.6335892E1,7.439299E1,8.714199E1,1.9825757E2,2.0783691E1,9.477756E1,1.8841003E1,7.712907E1,1.2348633E0,2.9029419E1,2.360025E2,1.4837646E-1,0E0,3.6824036E0,4.932251E-1,3.038858E1,3.9602356E0,1.6796623E1,1.1663391E1,8.226301E1,8.869934E-1,1.5414776E1,2.4214153E1,3.5356155E1,2.1783264E1,4.2441986E1,5.481703E1,1.6827881E2,0E0,3.6E1,8.819885E0,4.819259E1,1.3277306E1,1.790447E1,5.8123528E1,0E0,0E0,2.4690552E0,2.3559631E1,0E0,6.621094E-1,5.219877E1,2.2772636E0,0E0,0E0,0E0,0E0,0E0,0E0,0E0,0E0,0E0,0E0,0E0,0E0,0E0,0E0,0E0,0E0,0E0,0E0,0E0,0E0,0E0,0E0,0E0,0E0,0E0,0E0,0E0,0E0,0E0,0E0,0E0,0E0,0E0,0E0,0E0,0E0,0E0,0E0,0E0,0E0,0E0,0E0,0E0,0E0,0E0,0E0,0E0,0E0,0E0,0E0,0E0,0E0,0E0],"parents":[2147483647,0,0,1,1,2,2,3,3,4,4,5,5,6,6,7,7,8,8,9,9,10,10,11,11,12,12,13,13,14,14,15,15,16,16,17,17,18,18,19,19,20,20,21,21,22,22,23,23,24,24,25,25,26,26,27,27,28,28,29,29,30,30,32,32,33,33,34,34,35,35,36,36,37,37,38,38,39,39,40,40,41,41,42,42,43,43,44,44,45,45,46,46,48,48,49,49,50,50,51,51,52,52,53,53,56,56,57,57,59,59,60,60,61,61],"right_children":[2,4,6,8,10,12,14,16,18,20,22,24,26,28,30,32,34,36,38,40,42,44,46,48,50,52,54,56,58,60,62,-1,64,66,68,70,72,74,76,78,80,82,84,86,88,90,92,-1,94,96,98,100,102,104,-1,-1,106,108,-1,110,112,114,-1,-1,-1,-1,-1,-1,-1,-1,-1,-1,-1,-1,-1,-1,-1,-1,-1,-1,-1,-1,-1,-1,-1,-1,-1,-1,-1,-1,-1,-1,-1,-1,-1,-1,-1,-1,-1,-1,-1,-1,-1,-1,-1,-1,-1,-1,-1,-1,-1,-1,-1,-1,-1],"split_conditions":[5E-1,3.5E0,5E-1,2.5E0,3.5E0,4.5E0,4.5E0,3.5E0,2.5E0,2.5E0,1.5E0,3.5E0,1.5E0,3.5E0,4.5E0,2.5E0,1.5E0,4.5E0,3.5E0,4.5E0,4.5E0,4.5E0,3.5E0,2.5E0,2.5E0,2.5E0,4.5E0,3.5E0,4.5E0,2.5E0,5E-1,-1.8616208E-1,4.5E0,4.5E0,3.5E0,4.5E0,4.5E0,4.5E0,3.5E0,4.5E0,3.5E0,3.5E0,2.5E0,3.5E0,3.5E0,4.5E0,4.5E0,-1.8560185E-1,2.5E0,1.5E0,2.5E0,4.5E0,4.5E0,2.5E0,-1.8335083E-1,-1.863364E-1,2.5E0,4.5E0,-1.8606284E-1,2.5E0,2.5E0,4.5E0,-1.8428609E-1,-1.8085372E-1,-1.463474E-1,-1.8506825E-1,-1.3069457E-1,-1.9084254E-1,-4.8686672E-2,-1.7817374E-1,-1.058007E-1,-1.1675831E-1,1.04008E-1,-1.7983207E-1,-6.643928E-3,-3.6353387E-2,1.2122046E-1,-1.8477935E-1,-9.0468824E-2,-1.4226976E-1,-2.9898576E-2,-1.23477794E-1,7.5365077E-3,-1.0455623E-1,1.02711156E-1,-1.6020404E-1,-2.4540354E-2,-1.2807801E-1,9.670967E-2,-1.05178915E-1,8.895331E-2,1.7797028E-1,-1.8383045E-1,-1.7583792E-1,-9.818657E-2,-1.944949E-1,-1.291536E-1,-1.2520336E-1,2.107325E-2,-1.6461231E-1,-2.956597E-2,2.1354519E-2,-1.8740323E-1,1.1146132E-2,1.3873704E-1,-1.85729E-1,-1.5743971E-1,-1.2593104E-1,-1.9095723E-1,-1.8629813E-1,-1.6047075E-1,-1.3776575E-1,5.892248E-2,-1.0468602E-1,-1.8649788E-1],"split_indices":[4,18,2,18,12,24,12,13,13,13,13,24,12,11,11,13,18,22,12,18,18,18,23,12,12,13,11,12,16,11,6,0,12,24,12,14,14,22,22,14,14,22,23,14,17,17,11,0,17,13,19,23,11,13,0,0,11,22,0,18,21,16,0,0,0,0,0,0,0,0,0,0,0,0,0,0,0,0,0,0,0,0,0,0,0,0,0,0,0,0,0,0,0,0,0,0,0,0,0,0,0,0,0,0,0,0,0,0,0,0,0,0,0,0,0],"split_type":[0,0,0,0,0,0,0,0,0,0,0,0,0,0,0,0,0,0,0,0,0,0,0,0,0,0,0,0,0,0,0,0,0,0,0,0,0,0,0,0,0,0,0,0,0,0,0,0,0,0,0,0,0,0,0,0,0,0,0,0,0,0,0,0,0,0,0,0,0,0,0,0,0,0,0,0,0,0,0,0,0,0,0,0,0,0,0,0,0,0,0,0,0,0,0,0,0,0,0,0,0,0,0,0,0,0,0,0,0,0,0,0,0,0,0],"sum_hessian":[4.530628E4,1.5430305E4,2.9875975E4,8.1198174E3,7.3104873E3,8.549525E3,2.132645E4,4.9711987E3,3.1486187E3,2.1016104E3,5.208877E3,6.5011343E3,2.0483914E3,1.7068621E4,4.2578296E3,3.8501284E3,1.1210703E3,1.4567565E3,1.691862E3,9.389825E2,1.1626278E3,1.0268544E3,4.182023E3,4.5263364E3,1.9747976E3,5.779474E2,1.4704438E3,1.1966603E4,5.1020186E3,1.8819785E3,2.375851E3,2.47433E3,1.3757983E3,5.022554E2,6.188149E2,1.1169227E3,3.398338E2,4.6824606E2,1.223616E3,4.560297E2,4.829528E2,5.6361536E2,5.9901245E2,4.8148026E2,5.453741E2,5.444359E2,3.6375867E3,2.2793948E3,2.246942E3,9.1929785E2,1.0554996E3,3.4550778E2,2.324396E2,1.3725586E3,9.788536E1,1.0616364E4,1.3502383E3,3.4265374E3,1.6754811E3,8.2773175E2,1.0542467E3,1.9047838E2,2.1853728E3,9.2823956E2,4.4755884E2,4.7547513E2,2.6780272E1,1.9960423E2,4.1921066E2,1.0385197E3,7.840304E1,3.0610556E2,3.3728237E1,4.3007147E2,3.8174587E1,5.121662E2,7.1144977E2,4.43945E2,1.2084681E1,3.129517E2,1.7000108E2,3.710503E2,1.9256508E2,8.57017E1,5.133107E2,3.2190732E2,1.5957294E2,8.969124E1,4.5568283E2,3.2793576E2,2.1650018E2,3.518729E3,1.1885779E2,1.3430042E3,9.0393774E2,2.6950482E2,6.497931E2,2.7241122E2,7.8308844E2,2.5700885E2,8.8498924E1,1.8742223E2,4.5017384E1,5.1318304E2,8.593755E2,8.476412E2,5.0259714E2,2.810576E3,6.159614E2,6.531684E2,1.7456337E2,1.3902693E2,9.152198E2,4.463395E1,1.4584442E2],"tree_param":{"num_deleted":"0","num_feature":"27","num_nodes":"115","size_leaf_vector":"0"}},{"base_weights":[1.4197649E-1,-3.0065456E-1,4.8909122E-1,-3.9562434E-1,3.93067E-1,-1.87423E-1,6.3029E-1,8.449263E-1,-4.649929E-1,2.0211445E-1,8.0232334E-1,-3.446649E-1,8.444724E-1,4.1268593E-1,7.426828E-1,-4.9413487E-1,8.496358E-1,-5.783523E-1,-2.1005456E-1,9.7676516E-2,6.0512805E-1,8.4877014E-1,7.5843066E-1,-5.890017E-1,-9.8851405E-2,2.0010014E-1,8.1331563E-1,4.676267E-1,7.765081E-1,8.092263E-1,9.0622497E-1,-5.946999E-1,-3.7859887E-1,-4.8228246E-1,1.3582052E-1,1.0870366E-2,8.035802E-1,-6.727233E-2,8.401221E-1,5.132365E-1,8.299973E-1,8.728255E-1,-6.39673E-1,-3.7342687E-3,-3.5610664E-1,9.004025E-2,8.0837893E-1,5.8259004E-1,8.595503E-1,-5.669208E-1,5.355005E-1,5.0112826E-1,7.8955E-1,8.284917E-1,9.294196E-1,-6.259841E-1,-5.44668E-1,-4.2312622E-1,8.6225796E-1,-4.073989E-1,-6.245463E-1,-5.772182E-1,4.6065527E-1,2.726148E-1,-1.6741814E-1,1.2848002E-1,1.0041859E0,1.3603206E-1,-4.5115036E-1,4.5311424E-1,9.031478E-1,8.0229753E-1,1.1025932E-2,-2.7961299E-2,8.301384E-2,-3.5919404E-1,2.2628284E-1,-3.8895583E-1,2.1273364E-1,4.0633804E-1,9.253387E-1,-2.329974E-1,8.1933945E-1,1.0232595E0,8.5144067E-1,1.1496731E0,-6.874648E-1,3.6653808E-1,8.2773405E-1,2.5835645E-1,8.6425227E-1,6.829443E-1,8.001242E-1],"categories":[],"categories_nodes":[],"categories_segments":[],"categories_sizes":[],"default_left":[1,1,1,1,1,1,1,1,1,1,1,1,0,1,1,0,1,1,1,1,1,0,1,1,1,1,1,1,1,0,1,1,1,1,1,1,1,1,1,1,0,0,0,1,1,1,1,1,1,1,1,1,1,0,0,0,0,0,0,0,0,0,0,0,0,0,0,0,0,0,0,0,0,0,0,0,0,0,0,0,0,0,0,0,0,0,0,0,0,0,0,0,0],"id":8,"left_children":[1,3,5,7,9,11,13,15,17,19,21,23,-1,25,27,-1,29,31,33,35,37,-1,39,41,43,45,47,49,51,-1,53,55,57,59,61,63,65,67,69,71,-1,-1,-1,73,75,77,79,81,83,85,87,89,91,-1,-1,-1,-1,-1,-1,-1,-1,-1,-1,-1,-1,-1,-1,-1,-1,-1,-1,-1,-1,-1,-1,-1,-1,-1,-1,-1,-1,-1,-1,-1,-1,-1,-1,-1,-1,-1,-1,-1,-1],"loss_changes":[8.079378E3,1.522886E3,2.8154092E3,1.7499116E3,2.1737317E2,8.261675E2,5.9604297E2,7.211487E0,5.563179E2,7.988484E1,1.1610107E0,2.6526746E2,0E0,7.0732544E2,1.4921973E2,0E0,1.7216187E0,4.329541E1,5.5821594E2,9.249772E1,6.1793076E1,0E0,7.7255554E0,1.6464746E2,5.3912983E1,3.6334787E2,3.0216309E1,1.24109375E2,5.1018555E1,0E0,2.1362305E-2,1.8938477E1,5.622133E1,3.5085632E1,6.0515594E2,6.2827682E1,2.225756E1,8.030561E0,6.6545715E0,1.5607634E1,0E0,0E0,0E0,3.385122E0,1.1506653E0,2.7029855E2,3.8727844E1,9.360623E1,2.3103027E0,2.335326E1,8.141995E1,5.7082993E1,1.4859375E1,0E0,0E0,0E0,0E0,0E0,0E0,0E0,0E0,0E0,0E0,0E0,0E0,0E0,0E0,0E0,0E0,0E0,0E0,0E0,0E0,0E0,0E0,0E0,0E0,0E0,0E0,0E0,0E0,0E0,0E0,0E0,0E0,0E0,0E0,0E0,0E0,0E0,0E0,0E0,0E0],"parents":[2147483647,0,0,1,1,2,2,3,3,4,4,5,5,6,6,7,7,8,8,9,9,10,10,11,11,13,13,14,14,16,16,17,17,18,18,19,19,20,20,22,22,23,23,24,24,25,25,26,26,27,27,28,28,30,30,31,31,32,32,33,33,34,34,35,35,36,36,37,37,38,38,39,39,43,43,44,44,45,45,46,46,47,47,48,48,49,49,50,50,51,51,52,52],"right_children":[2,4,6,8,10,12,14,16,18,20,22,24,-1,26,28,-1,30,32,34,36,38,-1,40,42,44,46,48,50,52,-1,54,56,58,60,62,64,66,68,70,72,-1,-1,-1,74,76,78,80,82,84,86,88,90,92,-1,-1,-1,-1,-1,-1,-1,-1,-1,-1,-1,-1,-1,-1,-1,-1,-1,-1,-1,-1,-1,-1,-1,-1,-1,-1,-1,-1,-1,-1,-1,-1,-1,-1,-1,-1,-1,-1,-1,-1],"split_conditions":[3.5E0,3.5E0,5E-1,5E-1,4.5E0,4.5E0,3.5E0,5E-1,5E-1,4.5E0,4.5E0,3.5E0,2.5334173E-1,4.5E0,5E-1,-1.4824046E-1,3.5E0,3.5E0,3.5E0,4.5E0,5E-1,2.5463104E-1,4.5E0,5E-1,5.5E0,4.5E0,5E-1,3.5E0,2.5E0,2.4276789E-1,3.5E0,5E-1,4.5E0,3.5E0,5E-1,2.5E0,5E-1,2.5E0,5E-1,4.5E0,2.489992E-1,2.6184767E-1,-1.919019E-1,4.5E0,2.89E2,2.5E0,5E-1,4.5E0,3.5E0,5E-1,4.5E0,4.5E0,5E-1,2.4854751E-1,2.7882588E-1,-1.8779524E-1,-1.6340041E-1,-1.2693787E-1,2.586774E-1,-1.22219674E-1,-1.873639E-1,-1.7316546E-1,1.3819659E-1,8.178444E-2,-5.0225444E-2,3.8544007E-2,3.012558E-1,4.080962E-2,-1.3534512E-1,1.3593428E-1,2.7094436E-1,2.4068926E-1,3.3077796E-3,-8.38839E-3,2.4904152E-2,-1.0775822E-1,6.7884855E-2,-1.16686754E-1,6.3820094E-2,1.21901415E-1,2.7760163E-1,-6.9899224E-2,2.4580185E-1,3.0697787E-1,2.5543222E-1,3.4490195E-1,-2.0623945E-1,1.0996143E-1,2.4832022E-1,7.750694E-2,2.592757E-1,2.0488329E-1,2.4003728E-1],"split_indices":[16,11,4,11,11,11,19,18,6,23,21,11,0,16,2,0,18,13,20,22,4,0,20,11,26,22,2,11,24,0,23,4,22,14,2,16,4,26,6,18,0,0,0,24,26,24,2,11,17,11,11,20,6,0,0,0,0,0,0,0,0,0,0,0,0,0,0,0,0,0,0,0,0,0,0,0,0,0,0,0,0,0,0,0,0,0,0,0,0,0,0,0,0],"split_type":[0,0,0,0,0,0,0,0,0,0,0,0,0,0,0,0,0,0,0,0,0,0,0,0,0,0,0,0,0,0,0,0,0,0,0,0,0,0,0,0,0,0,0,0,0,0,0,0,0,0,0,0,0,0,0,0,0,0,0,0,0,0,0,0,0,0,0,0,0,0,0,0,0,0,0,0,0,0,0,0,0,0,0,0,0,0,0,0,0,0,0,0,0],"sum_hessian":[5.2583184E4,2.3111797E4,2.9471387E4,2.0329182E4,2.782614E3,5.088922E3,2.4382465E4,1.0759678E3,1.9253215E4,1.898362E3,8.84252E2,4.416582E3,6.7233997E2,8.305954E3,1.6076511E4,3.4067078E0,1.072561E3,1.3326336E4,5.926879E3,1.5086494E3,3.8971274E2,4.2071643E2,4.6353558E2,2.214244E3,2.202338E3,5.427476E3,2.8784775E3,1.7621449E3,1.4314366E4,6.346597E2,4.379013E2,1.2316396E4,1.0099392E3,3.3163137E3,2.6105654E3,1.344348E3,1.643013E2,1.0111138E2,2.8860135E2,1.06574066E2,3.5696152E2,7.3637405E1,2.1406064E3,1.6085936E3,5.937443E2,4.5968804E3,8.3059576E2,4.8279205E2,2.3956855E3,1.0803901E2,1.654106E3,6.490534E2,1.36653125E4,1.0907444E2,3.2882684E2,7.57091E3,4.7454863E3,9.755898E2,3.4349407E1,2.1752097E3,1.1411039E3,8.168144E2,1.793751E3,5.4447626E2,7.998718E2,3.8013756E1,1.2628755E2,6.6524956E1,3.458643E1,4.1564564E1,2.4703679E2,6.726203E1,3.9312035E1,1.2579506E3,3.5064304E2,5.9099457E2,2.7497685E0,9.3692944E2,3.659951E3,1.8818776E2,6.4240796E2,1.08619675E2,3.741724E2,1.0716492E2,2.2885208E3,6.528808E0,1.0151021E2,1.0495408E3,6.045652E2,3.9001486E2,2.5903857E2,1.239063E3,1.2426249E4],"tree_param":{"num_deleted":"0","num_feature":"27","num_nodes":"93","size_leaf_vector":"0"}},{"base_weights":[1.4657824E-1,4.080952E-1,-2.0370634E-1,5.5451214E-1,1.5543658E-1,1.401511E-1,-4.376522E-1,-5.6402045E-1,5.7607734E-1,5.4164976E-1,-1.3955599E-2,2.094452E-1,-5.882473E-1,-2.4392189E-1,-5.252957E-1,6.0895497E-1,-5.815938E-1,5.985346E-1,7.0636086E-2,-5.9706223E-1,5.671552E-1,5.2229047E-1,-9.338551E-2,3.0719814E-1,-1.6260624E-1,3.013663E-1,-3.1386572E-1,-3.0568278E-1,-5.550514E-1,6.5145797E-1,5.209475E-1,1.9753754E-1,-5.561351E-1,6.895584E-1,3.9197E-1,-6.2955797E-1,5.5410475E-1,8.305749E-2,-3.405583E-1,-6.5237975E-1,3.4070638E-1,1.7301905E-1,-4.8718777E-1,7.200983E-1,8.132693E-2,-1.9036484E-1,-5.1235306E-1,-1.8487266E-1,-5.6851333E-1,-2.1881308E-1,-5.61609E-1,7.009923E-1,6.184355E-1,5.6736374E-1,2.4700244E-1,5.97554E-1,8.169812E-2,-5.634462E-1,-2.9161143E-1,7.349053E-1,4.9314088E-1,5.761434E-1,1.046786E-1,7.194363E-1,3.3301E-1,2.4017972E-1,-2.5170377E-1,-3.710085E-2,-4.5644924E-1,4.5462E-1,3.2847065E-2,5.530026E-1,-7.520961E-2,-2.0439069E-1,-6.597304E-1,-5.105639E-1,7.4568146E-1,5.013508E-1,-8.927357E-2,-6.780073E-2,-5.126104E-1,-3.9492187E-1,-5.792325E-1,-2.5462257E-2,-4.4482017E-1,-5.7751745E-1,3.2857454E-1,1.4711632E-1,-3.8157362E-1,-4.052447E-1,-5.7233536E-1],"categories":[],"categories_nodes":[],"categories_segments":[],"categories_sizes":[],"default_left":[1,1,1,1,1,1,1,1,1,1,1,1,0,1,1,0,0,1,1,0,1,1,1,1,1,1,1,1,1,1,1,1,1,1,1,0,1,1,1,0,1,1,1,1,1,1,1,1,1,1,1,0,0,0,0,0,0,0,0,0,0,0,0,0,0,0,0,0,0,0,0,0,0,0,0,0,0,0,0,0,0,0,0,0,0,0,0,0,0,0,0],"id":9,"left_children":[1,3,5,7,9,11,13,15,17,19,21,23,-1,25,27,-1,-1,29,31,-1,33,35,37,39,41,43,45,47,49,51,53,55,57,59,61,-1,63,65,67,-1,69,71,73,75,77,79,81,83,85,87,89,-1,-1,-1,-1,-1,-1,-1,-1,-1,-1,-1,-1,-1,-1,-1,-1,-1,-1,-1,-1,-1,-1,-1,-1,-1,-1,-1,-1,-1,-1,-1,-1,-1,-1,-1,-1,-1,-1,-1,-1],"loss_changes":[4.460691E3,1.0312837E3,1.6745037E3,4.260791E2,6.6928235E2,4.2554126E2,2.1020166E2,7.2465363E0,1.9652246E2,9.092432E1,3.0298578E2,2.7998593E2,0E0,1.4732747E2,5.5559082E1,0E0,0E0,6.774219E1,5.879488E1,0E0,6.51568E1,3.397876E1,2.7022534E2,1.9622778E2,1.7462408E2,4.0425205E1,8.378696E1,3.2277344E1,1.643457E1,1.5683594E1,8.541589E1,2.8417686E1,7.645798E-2,1.5624329E1,6.646619E1,0E0,3.2424316E1,1.9024419E2,9.074173E1,0E0,2.0657355E2,7.440909E1,3.962108E1,5.142044E0,2.0764574E1,8.3342804E1,1.0074829E1,2.900244E1,2.7799454E0,8.709423E0,1.212085E1,0E0,0E0,0E0,0E0,0E0,0E0,0E0,0E0,0E0,0E0,0E0,0E0,0E0,0E0,0E0,0E0,0E0,0E0,0E0,0E0,0E0,0E0,0E0,0E0,0E0,0E0,0E0,0E0,0E0,0E0,0E0,0E0,0E0,0E0,0E0,0E0,0E0,0E0,0E0,0E0],"parents":[2147483647,0,0,1,1,2,2,3,3,4,4,5,5,6,6,7,7,8,8,9,9,10,10,11,11,13,13,14,14,17,17,18,18,20,20,21,21,22,22,23,23,24,24,25,25,26,26,27,27,28,28,29,29,30,30,31,31,32,32,33,33,34,34,36,36,37,37,38,38,40,40,41,41,42,42,43,43,44,44,45,45,46,46,47,47,48,48,49,49,50,50],"right_children":[2,4,6,8,10,12,14,16,18,20,22,24,-1,26,28,-1,-1,30,32,-1,34,36,38,40,42,44,46,48,50,52,54,56,58,60,62,-1,64,66,68,-1,70,72,74,76,78,80,82,84,86,88,90,-1,-1,-1,-1,-1,-1,-1,-1,-1,-1,-1,-1,-1,-1,-1,-1,-1,-1,-1,-1,-1,-1,-1,-1,-1,-1,-1,-1,-1,-1,-1,-1,-1,-1,-1,-1,-1,-1,-1,-1],"split_conditions":[3.5E0,3.5E0,3.5E0,5E-1,3.5E0,4.5E0,3.5E0,5E-1,3.5E0,5E-1,2.5E0,4.5E0,-1.764742E-1,3.5E0,2.5E0,1.826865E-1,-1.7447814E-1,2.5E0,4.5E0,-1.7911868E-1,2.5E0,5E-1,2.5E0,5E-1,5E-1,2.5E0,4.5E0,4.5E0,1.5E0,1.5E0,4.5E0,1.5E0,1.405E2,4.5E0,3.5E0,-1.888674E-1,2.5E0,4.5E0,2.5E0,-1.9571394E-1,3.5E0,2.5E0,5E-1,5E-1,1.5E0,4.5E0,4.5E0,3.5E0,1.445E2,1.5E0,3.5E0,2.1029769E-1,1.8553066E-1,1.7020912E-1,7.410073E-2,1.7926621E-1,2.4509437E-2,-1.6903387E-1,-8.7483436E-2,2.204716E-1,1.4794227E-1,1.7284302E-1,3.1403583E-2,2.1583089E-1,9.9903E-2,7.205392E-2,-7.5511135E-2,-1.1130256E-2,-1.3693477E-1,1.36386E-1,9.85412E-3,1.6590078E-1,-2.2562884E-2,-6.131721E-2,-1.9791912E-1,-1.5316918E-1,2.2370444E-1,1.5040526E-1,-2.6782073E-2,-2.034022E-2,-1.5378311E-1,-1.1847656E-1,-1.7376976E-1,-7.6386775E-3,-1.3344605E-1,-1.7325523E-1,9.8572366E-2,4.4134896E-2,-1.1447209E-1,-1.2157342E-1,-1.7170061E-1],"split_indices":[16,18,18,11,21,11,20,18,11,11,19,22,0,24,22,0,0,24,11,0,11,11,13,11,4,24,15,16,15,18,21,18,26,20,19,0,11,17,22,0,20,23,2,11,20,23,16,12,26,13,23,0,0,0,0,0,0,0,0,0,0,0,0,0,0,0,0,0,0,0,0,0,0,0,0,0,0,0,0,0,0,0,0,0,0,0,0,0,0,0,0],"split_type":[0,0,0,0,0,0,0,0,0,0,0,0,0,0,0,0,0,0,0,0,0,0,0,0,0,0,0,0,0,0,0,0,0,0,0,0,0,0,0,0,0,0,0,0,0,0,0,0,0,0,0,0,0,0,0,0,0,0,0,0,0,0,0,0,0,0,0,0,0,0,0,0,0,0,0,0,0,0,0,0,0,0,0,0,0,0,0,0,0,0,0],"sum_hessian":[4.8692746E4,2.7878746E4,2.0813998E4,1.7649549E4,1.0229196E4,8.42751E3,1.2386489E4,3.3336896E2,1.7316182E4,3.1179927E3,7.111203E3,7.6960776E3,7.314317E2,3.8593738E3,8.527115E3,4.424032E0,3.2894495E2,1.657936E4,7.36822E2,6.781723E1,3.0501755E3,9.16715E2,6.1944883E3,6.0948804E3,1.6011974E3,4.3838416E2,3.4209897E3,1.0188363E3,7.5082793E3,9.8518545E3,6.727505E3,6.1332733E2,1.2349466E2,1.7938573E3,1.2563182E3,2.4134335E1,8.925807E2,3.6147683E3,2.5797197E3,2.0502737E2,5.889853E3,7.874361E2,8.1376135E2,1.5022858E2,2.8815558E2,2.1100522E3,1.3109374E3,6.9916736E2,3.1966898E2,1.4428967E2,7.3639897E3,3.9326199E3,5.9192344E3,5.7518613E3,9.7564355E2,1.3679358E2,4.7653375E2,1.1907359E2,4.421071E0,1.4551621E3,3.386951E2,7.6493646E2,4.9138177E2,5.0940268E2,3.83178E2,2.4602961E3,1.1544723E3,7.132951E2,1.8664247E3,4.2987573E3,1.5910958E3,3.1065848E2,4.7677762E2,3.091877E2,5.0457364E2,2.6733189E0,1.4755525E2,8.267308E1,2.0548251E2,1.5295195E3,5.8053284E2,4.781958E2,8.327416E2,4.3407364E2,2.6509372E2,3.1684503E2,2.8239648E0,4.445008E1,9.983959E1,4.7521716E2,6.8887725E3],"tree_param":{"num_deleted":"0","num_feature":"27","num_nodes":"91","size_leaf_vector":"0"}},{"base_weights":[-3.23668E-1,-1.1344766E-1,-4.40357E-1,-3.8884214E-1,1.6133149E-1,-2.8062555E-1,-5.0926685E-1,-5.2476525E-1,-1.8948305E-1,-2.8918004E-1,2.8218397E-1,-5.042622E-1,-5.9463024E-2,-5.699224E-1,-4.2399555E-1,-5.644787E-1,-3.981924E-1,-4.6309385E-1,2.2154972E-2,-5.231629E-1,-1.0364356E-1,-1.04687296E-1,3.7612545E-1,-5.8444494E-1,-4.262264E-1,-5.018968E-1,2.7868308E-2,-5.88077E-1,-4.7169238E-1,-3.6789653E-1,-5.851933E-1,-5.878993E-1,-5.2260447E-1,-5.75134E-1,-2.63009E-1,-5.3286475E-1,-2.547148E-1,-5.0588727E-1,1.9729736E-1,-5.6751835E-1,-3.352814E-1,-3.5458443E-1,1.07730925E-1,-3.181689E-1,1.682062E-1,7.249702E-3,4.7072408E-1,-5.4029363E-1,-2.495476E-1,-5.652793E-1,-3.0690315E-1,7.824072E-2,-5.9158176E-1,-5.554145E-1,-2.995583E-1,-5.7296294E-1,-3.020697E-1,-5.570716E-1,-4.0259925E-1,-5.849887E-1,-3.9132106E-1,-3.863848E-1,1.3550389E-1,-5.525911E-1,-2.82316E-1,-4.5820335E-1,2.592592E-2,-5.5868334E-1,9.043897E-3,2.636973E-1,-6.791457E-1,-6.350213E-1,-4.5082834E-1,-4.677328E-1,1.5505148E-1,-5.06854E-1,-1.6497082E-1,-4.0764523E-1,2.0842348E-1,-4.656165E-1,-8.416885E-2,-3.5859764E-1,3.120422E-1,-2.3789133E-1,2.514399E-1,5.027243E-1,-5.882583E-1,-5.536735E-1,-3.7490627E-1,-5.7542574E-1,-1.4206943E-1,-5.8102024E-1,-2.4873888E-1,-5.403226E-1,-5.3800873E-2,-2.1829897E-1,1.8794042E-1,-5.9976137E-1,-5.200737E-1,-4.2774606E-1,1.5833259E-1,-5.824398E-1,-2.964864E-1,-2.0317796E-1,-5.740404E-1],"categories":[],"categories_nodes":[],"categories_segments":[],"categories_sizes":[],"default_left":[1,1,1,1,1,1,1,1,1,1,1,1,1,1,1,1,1,1,1,1,1,1,1,0,1,1,1,0,1,1,0,0,1,1,1,1,1,1,1,1,1,1,1,1,1,1,1,1,1,1,1,1,0,1,1,1,1,0,0,0,0,0,0,0,0,0,0,0,0,0,0,0,0,0,0,0,0,0,0,0,0,0,0,0,0,0,0,0,0,0,0,0,0,0,0,0,0,0,0,0,0,0,0,0,0],"id":10,"left_children":[1,3,5,7,9,11,13,15,17,19,21,23,25,27,29,31,33,35,37,39,41,43,45,-1,47,49,51,-1,53,55,-1,-1,57,59,61,63,65,67,69,71,73,75,77,79,81,83,85,87,89,91,93,95,-1,97,99,101,103,-1,-1,-1,-1,-1,-1,-1,-1,-1,-1,-1,-1,-1,-1,-1,-1,-1,-1,-1,-1,-1,-1,-1,-1,-1,-1,-1,-1,-1,-1,-1,-1,-1,-1,-1,-1,-1,-1,-1,-1,-1,-1,-1,-1,-1,-1,-1,-1],"loss_changes":[9.6395703E2,1.061658E3,2.7801367E2,1.8976831E2,3.8244873E2,3.7678235E2,9.106348E1,2.0714722E1,1.6458798E2,6.445464E1,2.0130777E2,2.3452515E1,1.4805992E2,1.8113525E1,6.617468E1,2.8000488E0,2.372696E1,1.7886902E1,1.4839647E2,5.2843018E0,4.406478E1,6.3134827E1,1.5549591E2,0E0,3.8627197E1,7.633621E0,9.992448E1,0E0,2.3089294E1,7.338104E1,0E0,0E0,4.5137634E0,5.5274963E-1,2.7967144E1,4.4293823E0,1.7878508E1,1.0870537E1,7.029576E1,3.8886414E0,8.379841E0,1.0880024E1,2.3504837E1,2.0934258E1,3.6173916E1,5.4566708E1,1.2048279E2,2.376892E0,2.6412529E1,2.2249298E0,9.255031E0,9.636537E1,0E0,1.3876953E0,3.1188946E1,3.2936401E0,1.1088022E2,0E0,0E0,0E0,0E0,0E0,0E0,0E0,0E0,0E0,0E0,0E0,0E0,0E0,0E0,0E0,0E0,0E0,0E0,0E0,0E0,0E0,0E0,0E0,0E0,0E0,0E0,0E0,0E0,0E0,0E0,0E0,0E0,0E0,0E0,0E0,0E0,0E0,0E0,0E0,0E0,0E0,0E0,0E0,0E0,0E0,0E0,0E0,0E0],"parents":[2147483647,0,0,1,1,2,2,3,3,4,4,5,5,6,6,7,7,8,8,9,9,10,10,11,11,12,12,13,13,14,14,15,15,16,16,17,17,18,18,19,19,20,20,21,21,22,22,24,24,25,25,26,26,28,28,29,29,32,32,33,33,34,34,35,35,36,36,37,37,38,38,39,39,40,40,41,41,42,42,43,43,44,44,45,45,46,46,47,47,48,48,49,49,50,50,51,51,53,53,54,54,55,55,56,56],"right_children":[2,4,6,8,10,12,14,16,18,20,22,24,26,28,30,32,34,36,38,40,42,44,46,-1,48,50,52,-1,54,56,-1,-1,58,60,62,64,66,68,70,72,74,76,78,80,82,84,86,88,90,92,94,96,-1,98,100,102,104,-1,-1,-1,-1,-1,-1,-1,-1,-1,-1,-1,-1,-1,-1,-1,-1,-1,-1,-1,-1,-1,-1,-1,-1,-1,-1,-1,-1,-1,-1,-1,-1,-1,-1,-1,-1,-1,-1,-1,-1,-1,-1,-1,-1,-1,-1,-1,-1],"split_conditions":[5E-1,3.5E0,5E-1,2.5E0,2.5E0,3.5E0,3.5E0,3.5E0,2.5E0,2.5E0,1.5E0,2.5E0,1.5E0,3.5E0,4.5E0,2.5E0,1.5E0,4.5E0,3.5E0,4.5E0,4.5E0,4.5E0,3.5E0,-1.7533349E-1,2.5E0,4.5E0,4.5E0,-1.764231E-1,2.5E0,2.5E0,-1.7555799E-1,-1.763698E-1,4.5E0,4.5E0,4.5E0,4.5E0,3.5E0,4.5E0,4.5E0,4.5E0,4.5E0,3.5E0,2.5E0,4.5E0,3.5E0,4.5E0,4.5E0,4.5E0,2.5E0,4.5E0,4.5E0,2.5E0,-1.7747453E-1,1.5E0,5E-1,1.285E2,4.5E0,-1.671215E-1,-1.20779775E-1,-1.7549662E-1,-1.17396325E-1,-1.1591544E-1,4.065117E-2,-1.6577733E-1,-8.46948E-2,-1.37461E-1,7.777776E-3,-1.6760501E-1,2.713169E-3,7.910919E-2,-2.0374371E-1,-1.9050641E-1,-1.3524851E-1,-1.4031984E-1,4.6515446E-2,-1.520562E-1,-4.9491245E-2,-1.2229357E-1,6.2527046E-2,-1.3968496E-1,-2.5250657E-2,-1.075793E-1,9.361266E-2,-7.1367405E-2,7.543197E-2,1.5081729E-1,-1.764775E-1,-1.6610205E-1,-1.12471886E-1,-1.7262773E-1,-4.262083E-2,-1.7430608E-1,-7.462167E-2,-1.6209678E-1,-1.6140264E-2,-6.5489694E-2,5.6382127E-2,-1.7992842E-1,-1.5602212E-1,-1.2832382E-1,4.749978E-2,-1.7473194E-1,-8.8945925E-2,-6.095339E-2,-1.7221212E-1],"split_indices":[4,18,2,18,22,24,14,13,13,13,13,12,13,11,16,13,18,22,12,19,18,17,21,0,24,21,11,0,14,18,0,0,21,24,22,14,20,22,11,17,24,20,17,23,21,18,11,14,19,12,17,22,0,13,6,26,21,0,0,0,0,0,0,0,0,0,0,0,0,0,0,0,0,0,0,0,0,0,0,0,0,0,0,0,0,0,0,0,0,0,0,0,0,0,0,0,0,0,0,0,0,0,0,0,0],"split_type":[0,0,0,0,0,0,0,0,0,0,0,0,0,0,0,0,0,0,0,0,0,0,0,0,0,0,0,0,0,0,0,0,0,0,0,0,0,0,0,0,0,0,0,0,0,0,0,0,0,0,0,0,0,0,0,0,0,0,0,0,0,0,0,0,0,0,0,0,0,0,0,0,0,0,0,0,0,0,0,0,0,0,0,0,0,0,0,0,0,0,0,0,0,0,0,0,0,0,0,0,0,0,0,0,0],"sum_hessian":[3.929747E4,1.4027779E4,2.526969E4,7.0058374E3,7.0219414E3,7.6175195E3,1.765217E4,4.1647065E3,2.8411309E3,1.4849564E3,5.536985E3,3.7869375E3,3.830582E3,1.0311597E4,7.340573E3,3.1674346E3,9.97272E2,1.238622E3,1.6025089E3,6.5593164E2,8.2902484E2,1.081797E3,4.455188E3,1.8645742E3,1.9223634E3,6.3068567E2,3.1998962E3,8.698899E3,1.6126973E3,5.447908E3,1.8926654E3,2.0229424E3,1.1444923E3,4.3051556E2,5.667565E2,9.2676056E2,3.1186142E2,3.98667E2,1.2038419E3,5.2901904E2,1.26912605E2,3.7872742E2,4.5029742E2,6.0687744E2,4.7491956E2,9.0955707E2,3.5456306E3,1.1669196E3,7.5544385E2,4.7453842E2,1.5614726E2,2.9600637E3,2.3983264E2,1.0834872E3,5.292101E2,1.321965E3,4.125943E3,8.8629425E2,2.5819803E2,4.0653745E2,2.3978104E1,4.3279706E2,1.3395938E2,8.580023E2,6.875824E1,1.8041347E2,1.3144795E2,3.6151572E2,3.7151268E1,1.119711E3,8.4130936E1,3.323303E2,1.9668872E2,9.99576E1,2.6955002E1,2.0912006E2,1.6960735E2,7.310004E1,3.771974E2,3.7168335E2,2.351941E2,1.01538506E2,3.7338104E2,4.5390775E2,4.5564935E2,3.4421416E3,1.0348903E2,1.0774092E3,8.951036E1,1.8628038E2,5.6916345E2,4.5126248E2,2.3275925E1,8.064184E1,7.5505424E1,7.9905963E2,2.161004E3,4.7343408E2,6.1005316E2,4.1351212E2,1.15697975E2,1.2770834E3,4.4881653E1,3.0270273E3,1.0989156E3],"tree_param":{"num_deleted":"0","num_feature":"27","num_nodes":"105","size_leaf_vector":"0"}},{"base_weights":[1.1907547E-1,-2.6408038E-1,4.0441167E-1,-3.5336936E-1,3.1711298E-1,-1.6492926E-1,5.2311516E-1,7.3247254E-1,-4.1704E-1,1.5707839E-1,6.930722E-1,-3.0011445E-1,7.388315E-1,3.99196E-1,7.0249194E-1,-4.4986615E-1,7.3650026E-1,-5.373326E-1,-1.6614403E-1,6.902075E-2,5.192586E-1,7.3866993E-1,6.502584E-1,-5.5772877E-1,-7.237322E-2,9.3285516E-2,5.497803E-1,5.633792E-1,7.1997726E-1,7.0200914E-1,7.815632E-1,-5.945785E-1,-4.6294454E-1,-4.1995725E-1,1.2397758E-1,-2.7802198E-3,6.2271804E-1,-9.111797E-2,7.3556787E-1,4.061759E-1,7.245346E-1,7.817889E-1,-6.091891E-1,1.10084005E-2,-3.1099764E-1,-6.4207274E-3,7.288125E-1,2.1285124E-1,6.17639E-1,-5.718694E-2,7.128905E-1,7.669322E-1,7.1250343E-1,-5.840912E-1,-2.8297383E-1,-3.3814093E-1,-5.840558E-1,-5.362721E-1,3.8981387E-1,-7.114045E-2,5.9286183E-1,7.610979E-2,8.064012E-1,1.0608157E-1,-4.4661185E-1,7.610096E-1,1.1696368E-1,-8.863799E-2,6.773724E-1,-6.892512E-2,4.5991562E-2,-2.932806E-1,-4.5002946E-1,-3.5135698E-1,1.4050552E-1,2.0123073E-1,8.0077505E-1,-5.1255263E-3,6.289939E-1,2.101416E-1,6.434185E-1,-4.5980638E-1,1.305929E-1,9.578865E-1,7.5221604E-1,7.343097E-1,7.083314E-1],"categories":[],"categories_nodes":[],"categories_segments":[],"categories_sizes":[],"default_left":[1,1,1,1,1,1,1,1,1,1,1,1,0,1,1,0,1,1,1,1,1,0,1,1,1,1,1,1,1,0,0,0,1,1,1,1,1,1,1,1,0,0,0,1,1,1,1,1,1,1,0,1,1,0,0,0,0,0,0,0,0,0,0,0,0,0,0,0,0,0,0,0,0,0,0,0,0,0,0,0,0,0,0,0,0,0,0],"id":11,"left_children":[1,3,5,7,9,11,13,15,17,19,21,23,-1,25,27,-1,29,31,33,35,37,-1,39,41,43,45,47,49,51,-1,-1,-1,53,55,57,59,61,63,65,67,-1,-1,-1,69,71,73,75,77,79,81,-1,83,85,-1,-1,-1,-1,-1,-1,-1,-1,-1,-1,-1,-1,-1,-1,-1,-1,-1,-1,-1,-1,-1,-1,-1,-1,-1,-1,-1,-1,-1,-1,-1,-1,-1,-1],"loss_changes":[5.1253745E3,1.0385403E3,1.816043E3,1.199553E3,1.6025592E2,5.666835E2,4.9395654E2,4.9084473E0,4.944558E2,5.963021E1,1.0726929E0,2.3662616E2,0E0,6.058203E2,2.1688965E1,0E0,9.4085693E-1,4.6887695E1,3.9119E2,5.9877865E1,4.8356422E1,0E0,7.295395E0,1.3094116E2,4.262733E1,2.7500125E2,2.0137988E2,9.456714E1,2.2836914E0,0E0,0E0,0E0,1.0494641E2,3.784323E1,4.3538086E2,5.436852E1,1.729712E1,6.8186536E0,4.1627655E0,1.347224E1,0E0,0E0,0E0,4.445093E0,1.2345047E0,1.9021533E2,2.218338E1,1.3416663E2,7.692554E1,1.5084613E1,0E0,2.3548584E0,1.1425781E-1,0E0,0E0,0E0,0E0,0E0,0E0,0E0,0E0,0E0,0E0,0E0,0E0,0E0,0E0,0E0,0E0,0E0,0E0,0E0,0E0,0E0,0E0,0E0,0E0,0E0,0E0,0E0,0E0,0E0,0E0,0E0,0E0,0E0,0E0],"parents":[2147483647,0,0,1,1,2,2,3,3,4,4,5,5,6,6,7,7,8,8,9,9,10,10,11,11,13,13,14,14,16,16,17,17,18,18,19,19,20,20,22,22,23,23,24,24,25,25,26,26,27,27,28,28,32,32,33,33,34,34,35,35,36,36,37,37,38,38,39,39,43,43,44,44,45,45,46,46,47,47,48,48,49,49,51,51,52,52],"right_children":[2,4,6,8,10,12,14,16,18,20,22,24,-1,26,28,-1,30,32,34,36,38,-1,40,42,44,46,48,50,52,-1,-1,-1,54,56,58,60,62,64,66,68,-1,-1,-1,70,72,74,76,78,80,82,-1,84,86,-1,-1,-1,-1,-1,-1,-1,-1,-1,-1,-1,-1,-1,-1,-1,-1,-1,-1,-1,-1,-1,-1,-1,-1,-1,-1,-1,-1,-1,-1,-1,-1,-1,-1],"split_conditions":[3.5E0,3.5E0,5E-1,5E-1,4.5E0,4.5E0,4.5E0,5E-1,5E-1,4.5E0,4.5E0,3.5E0,2.2164947E-1,3.5E0,5E-1,-1.3495985E-1,3.5E0,5E-1,3.5E0,4.5E0,5E-1,2.21601E-1,4.5E0,5E-1,5.5E0,4.5E0,5E-1,4.5E0,3.5E0,2.1060275E-1,2.3446898E-1,-1.7837356E-1,5E-1,3.5E0,5E-1,4.5E0,5E-1,5.5E0,4.5E0,4.5E0,2.1736038E-1,2.3453668E-1,-1.8275674E-1,3.5E0,5E-1,3.5E0,5E-1,4.5E0,2.5E0,3.5E0,2.1386716E-1,5E-1,5E-1,-1.7522736E-1,-8.4892154E-2,-1.01442285E-1,-1.7521673E-1,-1.6088164E-1,1.16944164E-1,-2.1342136E-2,1.7785856E-1,2.2832938E-2,2.4192037E-1,3.1824473E-2,-1.3398357E-1,2.2830288E-1,3.5089105E-2,-2.65914E-2,2.0321172E-1,-2.0677537E-2,1.3797469E-2,-8.798418E-2,-1.3500884E-1,-1.054071E-1,4.215166E-2,6.0369223E-2,2.4023253E-1,-1.5376579E-3,1.8869819E-1,6.3042484E-2,1.9302556E-1,-1.3794193E-1,3.9177872E-2,2.8736597E-1,2.2566482E-1,2.2029291E-1,2.1249942E-1],"split_indices":[16,11,4,11,11,11,16,18,6,21,21,11,0,21,2,0,18,4,20,22,4,0,20,11,26,22,6,11,18,0,0,0,2,14,2,17,4,26,14,13,0,0,0,12,8,17,2,21,22,13,0,6,6,0,0,0,0,0,0,0,0,0,0,0,0,0,0,0,0,0,0,0,0,0,0,0,0,0,0,0,0,0,0,0,0,0,0],"split_type":[0,0,0,0,0,0,0,0,0,0,0,0,0,0,0,0,0,0,0,0,0,0,0,0,0,0,0,0,0,0,0,0,0,0,0,0,0,0,0,0,0,0,0,0,0,0,0,0,0,0,0,0,0,0,0,0,0,0,0,0,0,0,0,0,0,0,0,0,0,0,0,0,0,0,0,0,0,0,0,0,0,0,0,0,0,0,0],"sum_hessian":[4.6878633E4,2.0009502E4,2.686913E4,1.734515E4,2.6643508E3,4.6354756E3,2.2233656E4,9.6015314E2,1.6384998E4,1.8698356E3,7.9451526E2,4.0328997E3,6.025762E2,1.3151447E4,9.082209E3,2.88391E0,9.572692E2,1.1074271E4,5.3107256E3,1.5050905E3,3.647452E2,3.7687793E2,4.1763733E2,1.8916598E3,2.1412397E3,4.3388125E3,8.812635E3,1.01780444E3,8.064405E3,5.516305E2,4.0563867E2,6.254264E3,4.820008E3,2.8323733E3,2.4783525E3,1.3332018E3,1.7188863E2,9.559008E1,2.6915512E2,9.894797E1,3.1868936E2,6.945846E1,1.8222014E3,1.5874849E3,5.5375494E2,3.7512742E3,5.8753815E2,1.4780458E3,7.334589E3,1.9772762E2,8.200768E2,1.093403E3,6.971002E3,2.879462E3,1.9405458E3,1.8920798E3,9.402934E2,7.111279E2,1.7672246E3,1.1967362E3,1.3646562E2,4.3589233E1,1.282994E2,6.1935062E1,3.3655018E1,2.583016E2,1.0853526E1,3.5269627E1,6.367834E1,4.829699E2,1.104515E3,4.9392307E2,5.9831867E1,1.1201427E3,2.6311313E3,7.097713E1,5.1656104E2,9.706199E2,5.0742587E2,4.3694406E2,6.8976445E3,6.2427635E1,1.3529997E2,7.364942E1,1.01975354E3,1.0914097E3,5.8795923E3],"tree_param":{"num_deleted":"0","num_feature":"27","num_nodes":"87","size_leaf_vector":"0"}},{"base_weights":[1.2484494E-1,3.4224913E-1,-1.7280477E-1,4.2076546E-1,-3.1703647E-2,1.1577341E-1,-3.9261648E-1,-5.6756914E-1,4.3981615E-1,3.3454677E-1,-2.0073992E-1,1.69428E-1,-5.65729E-1,-2.0048544E-1,-4.8908985E-1,5.3681266E-1,-5.798573E-1,4.7764143E-1,1.6009055E-2,4.3585548E-1,-4.3839153E-2,1.588145E-1,-3.3294535E-1,3.6785358E-1,1.2210758E-2,3.4796888E-1,-2.6508373E-1,-2.6584986E-1,-5.236579E-1,5.1697147E-1,2.2176342E-1,3.3459765E-1,-3.0163276E-1,6.348562E-1,2.7790442E-1,1.9454928E-1,-4.0831137E-1,3.2041225E-1,-2.1974961E-1,-1.4402673E-1,-4.8372155E-1,-6.044928E-1,4.1426057E-1,4.1849577E-1,-7.664862E-2,6.8389213E-1,1.3482809E-1,-1.4046076E-1,-4.532003E-1,-1.336206E-1,-5.022669E-1,-1.6756329E-1,-5.3145003E-1,5.2574027E-1,-2.8418058E-1,4.618383E-1,4.745302E-2,1.2241781E-1,6.9834775E-1,2.1214092E-1,-4.2452955E-1,-5.124725E-1,6.553214E-1,4.4960636E-1,-3.4522697E-2,3.385931E-1,-1.940995E-1,9.8055184E-2,-6.108516E-1,5.50821E-1,5.323463E-2,3.7762764E-1,-4.525562E-1,2.8969675E-1,-3.2286674E-1,-5.0051814E-1,5.7720053E-1,5.6484836E-1,2.5777557E-1,-6.9104266E-1,4.3389297E-1,1.2638623E-1,-2.5657526E-1,-5.615711E-1,7.415347E-1,5.230691E-1,-1.0625703E-1,-4.8153352E-2,-5.700171E-1,-7.260925E-2,-4.8156583E-1,6.6346177E-3,-3.89289E-1,-5.145573E-1,5.48341E-1,3.316574E-2,-4.833485E-1,-3.5494146E-1,-5.447536E-1],"categories":[],"categories_nodes":[],"categories_segments":[],"categories_sizes":[],"default_left":[1,1,1,1,1,1,1,1,1,1,1,1,0,1,1,0,0,1,1,1,1,1,1,1,1,1,1,1,1,1,1,1,1,1,1,1,1,1,1,1,1,0,1,1,1,1,1,1,1,1,1,1,1,0,0,0,0,0,0,0,0,0,0,0,0,0,0,0,0,0,0,0,0,0,0,0,0,0,0,0,0,0,0,0,0,0,0,0,0,0,0,0,0,0,0,0,0,0,0],"id":12,"left_children":[1,3,5,7,9,11,13,15,17,19,21,23,-1,25,27,-1,-1,29,31,33,35,37,39,41,43,45,47,49,51,53,55,57,59,61,63,65,67,69,71,73,75,-1,77,79,81,83,85,87,89,91,93,95,97,-1,-1,-1,-1,-1,-1,-1,-1,-1,-1,-1,-1,-1,-1,-1,-1,-1,-1,-1,-1,-1,-1,-1,-1,-1,-1,-1,-1,-1,-1,-1,-1,-1,-1,-1,-1,-1,-1,-1,-1,-1,-1,-1,-1,-1,-1],"loss_changes":[2.8182856E3,7.3900244E2,1.1661777E3,3.91906E2,2.7051447E2,2.9076828E2,1.9332776E2,5.655594E0,3.2715283E2,5.291449E1,1.4216171E2,2.2990668E2,0E0,1.2374008E2,5.3466187E1,0E0,0E0,1.884414E2,1.6943065E2,3.4038864E1,2.5478611E1,4.927932E1,6.2201996E1,1.4726077E2,1.4851933E2,2.626899E1,7.314656E1,2.9113342E1,1.65979E1,1.1423193E2,1.0451096E2,6.442676E1,5.302787E1,1.1627487E1,3.266548E1,9.99758E0,1.1948347E1,3.470005E1,3.3720974E1,7.5470955E1,2.1947052E1,0E0,7.31438E1,1.2912338E1,1.23351074E2,1.0659485E1,2.1255898E1,7.451135E1,1.3394363E1,2.1517416E1,4.6007233E0,8.27165E0,1.3625122E1,0E0,0E0,0E0,0E0,0E0,0E0,0E0,0E0,0E0,0E0,0E0,0E0,0E0,0E0,0E0,0E0,0E0,0E0,0E0,0E0,0E0,0E0,0E0,0E0,0E0,0E0,0E0,0E0,0E0,0E0,0E0,0E0,0E0,0E0,0E0,0E0,0E0,0E0,0E0,0E0,0E0,0E0,0E0,0E0,0E0,0E0],"parents":[2147483647,0,0,1,1,2,2,3,3,4,4,5,5,6,6,7,7,8,8,9,9,10,10,11,11,13,13,14,14,17,17,18,18,19,19,20,20,21,21,22,22,23,23,24,24,25,25,26,26,27,27,28,28,29,29,30,30,31,31,32,32,33,33,34,34,35,35,36,36,37,37,38,38,39,39,40,40,42,42,43,43,44,44,45,45,46,46,47,47,48,48,49,49,50,50,51,51,52,52],"right_children":[2,4,6,8,10,12,14,16,18,20,22,24,-1,26,28,-1,-1,30,32,34,36,38,40,42,44,46,48,50,52,54,56,58,60,62,64,66,68,70,72,74,76,-1,78,80,82,84,86,88,90,92,94,96,98,-1,-1,-1,-1,-1,-1,-1,-1,-1,-1,-1,-1,-1,-1,-1,-1,-1,-1,-1,-1,-1,-1,-1,-1,-1,-1,-1,-1,-1,-1,-1,-1,-1,-1,-1,-1,-1,-1,-1,-1,-1,-1,-1,-1,-1,-1],"split_conditions":[3.5E0,4.5E0,3.5E0,5E-1,3.5E0,4.5E0,3.5E0,5E-1,3.5E0,4.5E0,2.5E0,2.5E0,-1.6971871E-1,3.5E0,2.5E0,1.6104381E-1,-1.739572E-1,4.5E0,3.5E0,2.5E0,2.5E0,2.5E0,4.5E0,5E-1,2.5E0,2.5E0,4.5E0,4.5E0,1.5E0,4.5E0,2.5E0,5E-1,5E-1,5E-1,2.5E0,3.5E0,2.5E0,3.5E0,2.5E0,1.5E0,1.35E2,-1.8134785E-1,2.5E0,5E-1,2.5E0,5E-1,2.5E0,4.5E0,2.5E0,3.5E0,1.48E2,3.5E0,3.5E0,1.5772209E-1,-8.525418E-2,1.385515E-1,1.4235906E-2,3.6725342E-2,2.0950434E-1,6.364228E-2,-1.2735887E-1,-1.5374176E-1,1.9659643E-1,1.3488191E-1,-1.035681E-2,1.0157793E-1,-5.8229852E-2,2.9416556E-2,-1.8325548E-1,1.6524631E-1,1.597039E-2,1.132883E-1,-1.3576686E-1,8.6909026E-2,-9.686003E-2,-1.5015545E-1,1.7316017E-1,1.6945451E-1,7.7332675E-2,-2.073128E-1,1.301679E-1,3.791587E-2,-7.697258E-2,-1.6847134E-1,2.2246042E-1,1.5692073E-1,-3.187711E-2,-1.4446006E-2,-1.7100513E-1,-2.1782776E-2,-1.4446975E-1,1.9903854E-3,-1.167867E-1,-1.543672E-1,1.645023E-1,9.949723E-3,-1.4500456E-1,-1.0648244E-1,-1.6342609E-1],"split_indices":[16,18,18,11,21,11,20,18,11,20,20,19,0,17,22,0,0,22,14,22,13,13,23,11,22,13,18,18,15,24,18,6,4,11,13,12,21,22,19,16,25,0,11,11,15,11,22,23,15,14,25,14,23,0,0,0,0,0,0,0,0,0,0,0,0,0,0,0,0,0,0,0,0,0,0,0,0,0,0,0,0,0,0,0,0,0,0,0,0,0,0,0,0,0,0,0,0,0,0],"split_type":[0,0,0,0,0,0,0,0,0,0,0,0,0,0,0,0,0,0,0,0,0,0,0,0,0,0,0,0,0,0,0,0,0,0,0,0,0,0,0,0,0,0,0,0,0,0,0,0,0,0,0,0,0,0,0,0,0,0,0,0,0,0,0,0,0,0,0,0,0,0,0,0,0,0,0,0,0,0,0,0,0,0,0,0,0,0,0,0,0,0,0,0,0,0,0,0,0,0,0],"sum_hessian":[4.355044E4,2.5167719E4,1.8382723E4,2.0800297E4,4.367423E3,7.948312E3,1.043441E4,3.9281042E2,2.0407486E4,1.3788635E3,2.988559E3,7.36891E3,5.7940186E2,3.4889958E3,6.9454146E3,3.8528774E0,3.8895755E2,1.8735219E4,1.6722672E3,1.0875359E3,2.913277E2,8.0339435E2,2.1851648E3,3.256945E3,4.1119653E3,3.6717865E2,3.1218171E3,9.3243854E2,6.0129756E3,1.6238273E4,2.4969453E3,8.348627E2,8.374045E2,4.7989822E2,6.0763763E2,1.7641022E2,1.1491749E2,5.6315424E2,2.4024014E2,9.7077045E2,1.2143943E3,1.4781487E2,3.1091301E3,7.37274E2,3.3746914E3,1.4167746E2,2.2550119E2,1.8788608E3,1.2429563E3,5.989871E2,3.3345142E2,1.2924101E2,5.883735E3,1.6062807E4,1.7546669E2,1.0496416E3,1.4473038E3,5.281329E2,3.0672977E2,1.615044E2,6.759001E2,7.9887476E0,4.719095E2,3.918486E2,2.1578903E2,1.2880162E2,4.7608593E1,3.2980217E1,8.193727E1,3.0181406E2,2.6134018E2,6.719556E1,1.7304459E2,2.832388E2,6.875317E2,1.1959875E3,1.8406727E1,1.5830898E3,1.5260403E3,9.490595E0,7.277834E2,1.5856697E3,1.7890217E3,5.8803606E0,1.357971E2,8.593795E1,1.3956323E2,1.5474429E3,3.3141803E2,8.645927E1,1.1564971E3,3.87426E2,2.1156111E2,3.301E2,3.3514132E0,7.956222E1,4.9678795E1,4.1431937E2,5.4694155E3],"tree_param":{"num_deleted":"0","num_feature":"27","num_nodes":"99","size_leaf_vector":"0"}},{"base_weights":[-2.8277797E-1,-4.3177184E-1,-1.376738E-1,-4.9475542E-1,-2.3942722E-1,-4.7879803E-1,-3.411285E-2,-5.5194014E-1,-4.2760748E-1,6.140842E-2,-3.9141968E-1,-5.6273955E-1,-3.908632E-1,5.6252018E-2,-5.46571E-1,-5.5622053E-1,-3.6614433E-1,-5.306115E-1,-3.1698573E-1,-4.0928015E-1,1.6426417E-1,-3.0018669E-2,-5.483606E-1,-5.424867E-1,-2.901678E-1,1.9226156E-1,-1.3576575E-1,-5.7439643E-1,-5.1197517E-1,-5.6638384E-1,-5.1196086E-1,-5.2070683E-1,-7.9008184E-2,-5.5422765E-1,-3.4225765E-1,-3.8717222E-1,-4.5924652E-2,-5.2422404E-1,-1.1125574E-1,-4.231849E-1,2.437193E-1,-2.8878954E-1,1.3149849E-1,-5.6340504E-1,-4.882474E-1,-5.534856E-1,-2.7212512E-1,-4.4026285E-1,-6.693636E-2,-1.8709531E-1,2.8285557E-1,-2.4263623E-1,2.748101E-1,-4.3651524E-1,-5.620614E-1,-5.706626E-1,-5.3803295E-1,-5.5086356E-1,-3.8912284E-1,-5.3693455E-1,-3.1206685E-1,-5.039711E-1,3.9757586E-1,-5.627297E-1,-4.432921E-1,-5.4853326E-1,-9.127877E-2,-4.6231836E-1,-2.063719E-1,-3.103802E-1,8.318809E-2,-5.691627E-1,-3.0670905E-1,-5.473267E-1,1.06204495E-1,-5.362482E-1,-1.4438327E-1,-2.8488067E-1,3.2883415E-1,-4.025521E-1,1.3572913E-1,-7.188068E-2,3.9291203E-1,-2.890138E-1,-5.577512E-1,-5.557073E-1,-1.3634583E-1,-5.115393E-1,9.1381475E-2,-5.294283E-1,-3.2436806E-1,-1.9901194E-1,4.1083688E-1,-4.1433373E-1,1.316015E-1,1.6763361E-2,4.1240686E-1,1.0715492E-1,-4.1089788E-1,-2.658913E-1,3.5827222E-1,9.19587E-2,-5.432001E-1],"categories":[],"categories_nodes":[],"categories_segments":[],"categories_sizes":[],"default_left":[1,1,1,1,1,1,1,1,1,1,1,0,1,1,1,1,1,1,1,1,1,1,1,1,1,1,1,0,1,1,1,1,1,1,1,1,1,1,1,1,1,1,1,0,1,1,1,1,1,1,1,1,1,1,0,0,0,0,0,0,0,0,0,0,0,0,0,0,0,0,0,0,0,0,0,0,0,0,0,0,0,0,0,0,0,0,0,0,0,0,0,0,0,0,0,0,0,0,0,0,0,0,0],"id":13,"left_children":[1,3,5,7,9,11,13,15,17,19,21,-1,23,25,27,29,31,33,35,37,39,41,43,45,47,49,51,-1,53,55,57,59,61,63,65,67,69,71,73,75,77,79,81,-1,83,85,87,89,91,93,95,97,99,101,-1,-1,-1,-1,-1,-1,-1,-1,-1,-1,-1,-1,-1,-1,-1,-1,-1,-1,-1,-1,-1,-1,-1,-1,-1,-1,-1,-1,-1,-1,-1,-1,-1,-1,-1,-1,-1,-1,-1,-1,-1,-1,-1,-1,-1,-1,-1,-1,-1],"loss_changes":[7.36531E2,2.0352075E2,6.098009E2,4.838379E1,1.8971051E2,2.9453247E1,6.132903E2,5.2321777E0,6.624011E1,6.752088E1,1.5630838E2,0E0,2.9867859E1,2.940622E2,1.6170044E0,2.7143555E0,6.9196396E0,1.32283325E1,5.3492035E1,8.510872E0,5.3507053E1,3.496057E1,1.4627075E0,2.1797485E0,3.9638367E1,2.2656743E2,2.0492563E2,0E0,3.1341553E0,3.50708E-1,5.795868E0,1.7704391E-1,1.1554764E1,2.2771606E0,1.7484173E1,3.0256744E1,1.9816881E1,1.5874023E0,6.7810044E0,4.2310066E0,4.5466267E1,1.557719E1,2.7415909E1,0E0,5.2690353E0,6.212311E-1,2.8840616E0,7.141922E0,3.0191936E1,9.211235E1,1.8341461E2,2.1811009E2,4.3631836E1,2.0414581E1,0E0,0E0,0E0,0E0,0E0,0E0,0E0,0E0,0E0,0E0,0E0,0E0,0E0,0E0,0E0,0E0,0E0,0E0,0E0,0E0,0E0,0E0,0E0,0E0,0E0,0E0,0E0,0E0,0E0,0E0,0E0,0E0,0E0,0E0,0E0,0E0,0E0,0E0,0E0,0E0,0E0,0E0,0E0,0E0,0E0,0E0,0E0,0E0,0E0],"parents":[2147483647,0,0,1,1,2,2,3,3,4,4,5,5,6,6,7,7,8,8,9,9,10,10,12,12,13,13,14,14,15,15,16,16,17,17,18,18,19,19,20,20,21,21,22,22,23,23,24,24,25,25,26,26,28,28,29,29,30,30,31,31,32,32,33,33,34,34,35,35,36,36,37,37,38,38,39,39,40,40,41,41,42,42,44,44,45,45,46,46,47,47,48,48,49,49,50,50,51,51,52,52,53,53],"right_children":[2,4,6,8,10,12,14,16,18,20,22,-1,24,26,28,30,32,34,36,38,40,42,44,46,48,50,52,-1,54,56,58,60,62,64,66,68,70,72,74,76,78,80,82,-1,84,86,88,90,92,94,96,98,100,102,-1,-1,-1,-1,-1,-1,-1,-1,-1,-1,-1,-1,-1,-1,-1,-1,-1,-1,-1,-1,-1,-1,-1,-1,-1,-1,-1,-1,-1,-1,-1,-1,-1,-1,-1,-1,-1,-1,-1,-1,-1,-1,-1,-1,-1,-1,-1,-1,-1],"split_conditions":[3.5E0,4.5E0,2.5E0,2.5E0,5E-1,2.5E0,4.5E0,4.5E0,3.5E0,1.5E0,5E-1,-1.6882187E-1,1.5E0,5E-1,4.5E0,4.5E0,3.5E0,4.5E0,3.5E0,4.5E0,1.5E0,2.5E0,3.5E0,2.444E3,3.5E0,1.5E0,4.5E0,-1.7231894E-1,4.5E0,4.5E0,2.5E0,4.5E0,1.5E0,4.5E0,2.5E0,3.5E0,2.5E0,4.5E0,2.5E0,3.5E0,2.5E0,4.5E0,3.5E0,-1.6902152E-1,4.5E0,2.15E2,3.5E0,2.5E0,4.5E0,4.5E0,3.5E0,5E-1,2.5E0,4.5E0,-1.6861844E-1,-1.7119879E-1,-1.6140988E-1,-1.6525908E-1,-1.1673686E-1,-1.6108038E-1,-9.362006E-2,-1.5119134E-1,1.1927276E-1,-1.6881892E-1,-1.3298763E-1,-1.6455999E-1,-2.7383631E-2,-1.3869551E-1,-6.191157E-2,-9.311406E-2,2.4956428E-2,-1.7074883E-1,-9.201272E-2,-1.6419801E-1,3.186135E-2,-1.6087447E-1,-4.3314982E-2,-8.54642E-2,9.865025E-2,-1.20765634E-1,4.071874E-2,-2.1564206E-2,1.1787362E-1,-8.670414E-2,-1.6732536E-1,-1.667122E-1,-4.090375E-2,-1.5346178E-1,2.7414443E-2,-1.588285E-1,-9.7310424E-2,-5.9703585E-2,1.23251066E-1,-1.2430012E-1,3.948045E-2,5.0290087E-3,1.2372206E-1,3.2146476E-2,-1.2326937E-1,-7.97674E-2,1.0748167E-1,2.7587611E-2,-1.6296002E-1],"split_indices":[12,24,18,13,2,11,11,14,18,13,4,0,18,4,18,19,18,23,14,21,20,16,11,10,20,13,14,0,16,20,14,17,12,21,17,11,22,23,14,22,23,20,23,0,16,25,24,20,19,18,17,2,23,20,0,0,0,0,0,0,0,0,0,0,0,0,0,0,0,0,0,0,0,0,0,0,0,0,0,0,0,0,0,0,0,0,0,0,0,0,0,0,0,0,0,0,0,0,0,0,0,0,0],"split_type":[0,0,0,0,0,0,0,0,0,0,0,0,0,0,0,0,0,0,0,0,0,0,0,0,0,0,0,0,0,0,0,0,0,0,0,0,0,0,0,0,0,0,0,0,0,0,0,0,0,0,0,0,0,0,0,0,0,0,0,0,0,0,0,0,0,0,0,0,0,0,0,0,0,0,0,0,0,0,0,0,0,0,0,0,0,0,0,0,0,0,0,0,0,0,0,0,0,0,0,0,0,0,0],"sum_hessian":[3.406945E4,1.6808451E4,1.7260998E4,1.2661009E4,4.1474424E3,4.019001E3,1.3241998E4,6.8338926E3,5.827116E3,1.3922955E3,2.755147E3,2.0534258E3,1.9655752E3,1.1257742E4,1.984256E3,6.678049E3,1.5584328E2,3.015487E3,2.8116294E3,2.4915106E2,1.1431445E3,8.3455E2,1.9205968E3,7.826705E2,1.1829048E3,6.589958E3,4.6677837E3,1.0910891E3,8.9316693E2,5.421352E3,1.2566973E3,1.0078063E2,5.506264E1,2.6777974E3,3.3768958E2,2.233004E3,5.786253E2,1.7925566E2,6.989541E1,1.3567911E2,1.0074654E3,3.2041565E2,5.1413434E2,1.5294507E3,3.911462E2,7.5106836E2,3.1602106E1,7.067394E2,4.761654E2,1.270163E3,5.319795E3,3.7040503E3,9.6373346E2,3.6020197E2,5.3296497E2,4.6938257E3,7.275262E2,9.5178326E2,3.0491394E2,9.204778E1,8.732846E0,2.9077341E1,2.59853E1,2.4833977E3,1.9439964E2,1.8470107E2,1.529885E2,1.5762917E3,6.567123E2,1.8936137E2,3.8926395E2,1.4722273E2,3.2032925E1,2.2752712E1,4.7142696E1,9.587515E1,3.9803955E1,1.3939783E2,8.6806757E2,2.5273851E2,6.767715E1,2.8957254E2,2.2456178E2,1.0249655E2,2.8864966E2,7.467589E2,4.309428E0,1.880768E1,1.2794425E1,3.9741425E2,3.093251E2,3.7349887E2,1.0266653E2,7.41299E2,5.28864E2,1.7423074E3,3.5774875E3,1.2031799E3,2.5008704E3,1.285766E2,8.3515686E2,6.052473E1,2.9967722E2],"tree_param":{"num_deleted":"0","num_feature":"27","num_nodes":"103","size_leaf_vector":"0"}},{"base_weights":[1.01913E-1,-2.3058079E-1,3.4178087E-1,-3.1510428E-1,2.6254606E-1,-1.4781141E-1,4.4625625E-1,6.675763E-1,-3.7325096E-1,1.236941E-1,6.273981E-1,-5.3707665E-1,9.332303E-2,3.2773155E-1,6.335656E-1,-4.113102E-1,6.7124915E-1,-5.02472E-1,-1.2460262E-1,-5.2454595E-2,2.7114612E-1,6.776527E-1,5.804123E-1,7.0493937E-1,-5.87071E-1,-4.845894E-2,6.6722894E-1,6.702738E-2,4.651264E-1,4.9118814E-1,6.520683E-1,6.3805825E-1,7.111979E-1,-5.7238173E-1,-4.1422755E-1,2.9666144E-2,-5.7064724E-1,1.1794325E-1,-3.986711E-1,3.9143586E-1,-2.0477365E-1,3.2191402E-1,6.6319144E-1,2.4418687E-2,-2.6919216E-1,-1.4013552E-2,6.2938476E-1,1.5674059E-1,5.3432465E-1,-5.815081E-2,6.469028E-1,6.958607E-1,6.446995E-1,-5.5602753E-1,-2.1417212E-1,-4.8317474E-1,1.9076525E-1,-4.8832598E-1,-6.121962E-1,2.6622322E-1,-2.1999696E-1,3.9966038E-1,-6.008122E-1,-3.7219092E-2,5.5117476E-1,1.3827807E-1,-6.520329E-1,6.3237256E-1,-1.2654571E-1,-5.5363767E-2,5.9372053E-2,-2.4175526E-1,-3.8077226E-1,-6.934791E-2,6.954956E-1,1.4251138E-1,7.06362E-1,-2.9176466E-2,5.201519E-1,2.17276E-1,5.6777453E-1,-2.9629385E-1,2.3876181E-1,8.3555096E-1,6.841515E-1],"categories":[],"categories_nodes":[],"categories_segments":[],"categories_sizes":[],"default_left":[1,1,1,1,1,1,1,1,1,1,1,1,1,1,1,0,1,1,1,1,1,0,1,0,0,1,0,1,1,1,1,0,0,0,1,1,1,1,1,1,1,1,0,1,1,1,1,1,1,1,0,1,0,0,0,0,0,0,0,0,0,0,0,0,0,0,0,0,0,0,0,0,0,0,0,0,0,0,0,0,0,0,0,0,0],"id":14,"left_children":[1,3,5,7,9,11,13,15,17,19,21,23,25,27,29,-1,31,33,35,37,39,-1,41,-1,-1,43,-1,45,47,49,51,-1,-1,-1,53,55,57,59,61,63,65,67,-1,69,71,73,75,77,79,81,-1,83,-1,-1,-1,-1,-1,-1,-1,-1,-1,-1,-1,-1,-1,-1,-1,-1,-1,-1,-1,-1,-1,-1,-1,-1,-1,-1,-1,-1,-1,-1,-1,-1,-1],"loss_changes":[3.2847E3,7.1950214E2,1.2238323E3,8.4220776E2,1.2789618E2,3.950622E2,4.3753857E2,3.5394897E0,4.4695618E2,4.7571754E1,1.2503662E0,1.0037628E2,2.115464E2,4.3260278E2,1.9807373E1,0E0,6.3497925E-1,5.623828E1,3.2749036E2,4.931653E1,5.714807E1,0E0,7.6337433E0,0E0,0E0,3.3553337E1,0E0,1.9003792E2,1.6870337E2,7.55499E1,1.7324219E0,0E0,0E0,0E0,1.14777466E2,2.9231396E2,3.8842468E0,2.8143179E1,4.4730053E1,5.4529808E1,3.1049652E1,1.2735067E1,0E0,4.377849E0,1.4928474E0,1.4316982E2,1.9583847E1,9.804831E1,6.8381836E1,1.3921087E1,0E0,9.999695E-1,0E0,0E0,0E0,0E0,0E0,0E0,0E0,0E0,0E0,0E0,0E0,0E0,0E0,0E0,0E0,0E0,0E0,0E0,0E0,0E0,0E0,0E0,0E0,0E0,0E0,0E0,0E0,0E0,0E0,0E0,0E0,0E0,0E0],"parents":[2147483647,0,0,1,1,2,2,3,3,4,4,5,5,6,6,7,7,8,8,9,9,10,10,11,11,12,12,13,13,14,14,16,16,17,17,18,18,19,19,20,20,22,22,25,25,27,27,28,28,29,29,30,30,34,34,35,35,36,36,37,37,38,38,39,39,40,40,41,41,43,43,44,44,45,45,46,46,47,47,48,48,49,49,51,51],"right_children":[2,4,6,8,10,12,14,16,18,20,22,24,26,28,30,-1,32,34,36,38,40,-1,42,-1,-1,44,-1,46,48,50,52,-1,-1,-1,54,56,58,60,62,64,66,68,-1,70,72,74,76,78,80,82,-1,84,-1,-1,-1,-1,-1,-1,-1,-1,-1,-1,-1,-1,-1,-1,-1,-1,-1,-1,-1,-1,-1,-1,-1,-1,-1,-1,-1,-1,-1,-1,-1,-1,-1],"split_conditions":[3.5E0,3.5E0,5E-1,5E-1,4.5E0,3.5E0,4.5E0,5E-1,5E-1,3.5E0,4.5E0,5E-1,4.5E0,3.5E0,5E-1,-1.23393066E-1,3.5E0,5E-1,3.5E0,5E-1,4.5E0,2.0329583E-1,4.5E0,2.1148182E-1,-1.7612131E-1,5.5E0,2.0016868E-1,4.5E0,5E-1,4.5E0,3.5E0,1.9141749E-1,2.1335939E-1,-1.7171453E-1,5E-1,5E-1,5E-1,7.5E0,5E-1,5E-1,5E-1,4.5E0,1.9895744E-1,3.5E0,4.5E0,4.5E0,5E-1,4.5E0,2.5E0,5E-1,1.9407085E-1,5E-1,1.9340986E-1,-1.6680826E-1,-6.425164E-2,-1.4495243E-1,5.7229575E-2,-1.464978E-1,-1.8365887E-1,7.986697E-2,-6.599909E-2,1.1989812E-1,-1.8024367E-1,-1.1165728E-2,1.6535243E-1,4.148342E-2,-1.9560988E-1,1.8971178E-1,-3.7963714E-2,-1.660913E-2,1.7811617E-2,-7.252658E-2,-1.1423168E-1,-2.0804374E-2,2.086487E-1,4.2753417E-2,2.1190861E-1,-8.75294E-3,1.5604559E-1,6.5182805E-2,1.7033237E-1,-8.888816E-2,7.162855E-2,2.506653E-1,2.0524545E-1],"split_indices":[16,11,4,11,11,11,16,18,6,14,21,11,11,21,2,0,18,4,14,6,14,0,20,0,0,26,0,22,6,11,18,0,0,0,2,2,2,26,2,6,6,18,0,12,20,23,2,21,24,6,0,6,0,0,0,0,0,0,0,0,0,0,0,0,0,0,0,0,0,0,0,0,0,0,0,0,0,0,0,0,0,0,0,0,0],"split_type":[0,0,0,0,0,0,0,0,0,0,0,0,0,0,0,0,0,0,0,0,0,0,0,0,0,0,0,0,0,0,0,0,0,0,0,0,0,0,0,0,0,0,0,0,0,0,0,0,0,0,0,0,0,0,0,0,0,0,0,0,0,0,0,0,0,0,0,0,0,0,0,0,0,0,0,0,0,0,0,0,0,0,0,0,0],"sum_hessian":[4.1183105E4,1.7259215E4,2.392389E4,1.4734105E4,2.5251104E3,4.2072886E3,1.9716602E4,8.2254785E2,1.3911558E4,1.8300035E3,6.951067E2,1.6088622E3,2.5984263E3,1.2077199E4,7.639402E3,2.4141548E0,8.201337E2,9.153513E3,4.758045E3,8.341536E2,9.958499E2,3.2938382E2,3.6572287E2,6.1747982E1,1.5471141E3,2.084397E3,5.140293E2,4.168685E3,7.9085146E3,8.817701E2,6.7576313E3,4.5722552E2,3.629082E2,5.1042744E3,4.0492378E3,3.5360142E3,1.2220306E3,5.5946185E2,2.7469177E2,7.950715E2,2.0077849E2,8.9894295E1,2.7582855E2,1.567694E3,5.16703E2,3.6444595E3,5.2422546E2,1.449959E3,6.4585557E3,1.9488177E2,6.868883E2,9.598578E2,5.797774E3,2.368592E3,1.6806459E3,8.447735E2,2.6912407E3,4.141756E2,8.078551E2,3.8899326E2,1.704686E2,5.5302837E1,2.1938892E2,2.1605658E2,5.790149E2,1.14017166E2,8.676132E1,5.2877975E1,3.7016323E1,4.774077E2,1.0902863E3,4.1726633E2,9.943666E1,3.3816296E3,2.628298E2,7.195689E1,4.522686E2,9.5983704E2,4.901219E2,6.1708905E2,5.841467E3,1.0814478E2,8.673699E1,6.879352E1,8.910643E2],"tree_param":{"num_deleted":"0","num_feature":"27","num_nodes":"85","size_leaf_vector":"0"}},{"base_weights":[1.0611018E-1,2.8714317E-1,-1.4501953E-1,4.1875318E-1,9.425377E-2,1.186206E-1,-3.3622912E-1,-5.212349E-1,4.3295702E-1,4.326563E-1,-3.0700153E-2,2.3338558E-1,-2.229891E-1,3.507542E-2,-4.225814E-1,4.825101E-1,-5.4034495E-1,5.797524E-1,3.849919E-1,5.3872234E-1,2.778315E-1,1.8056355E-1,-1.9821475E-1,2.7489534E-1,-5.468328E-1,2.3992881E-1,-5.2966404E-1,1.08040065E-1,-5.257688E-1,1.0416961E-1,-4.5681208E-1,5.831414E-1,-3.5016727E-1,4.2168492E-1,1.1328774E-1,-5.3195125E-1,5.561294E-1,4.4355813E-1,6.187846E-2,3.6152658E-1,-2.0021502E-2,7.477413E-2,-2.9296818E-1,4.1668996E-1,1.1830193E-1,-5.6834924E-1,-3.7826374E-1,4.4592813E-1,-2.4530905E-1,-3.412432E-2,-5.926291E-1,2.1265298E-1,-7.772243E-2,-2.253904E-1,-5.4849565E-1,1.7421764E-1,-5.291156E-1,-1.0463846E-1,-4.917179E-1,5.886605E-1,4.5111293E-1,-5.0186026E-1,2.7520856E-1,4.4401553E-1,2.0483747E-2,6.110451E-1,-3.3320338E-2,5.6777555E-1,-2.0568302E-1,-5.241989E-1,4.7263366E-1,2.370642E-1,-2.7167422E-1,4.9746883E-1,1.7254242E-1,3.2570603E-1,-1.6988972E-1,2.5801843E-1,-2.2998713E-1,5.077359E-1,-3.1607607E-1,-6.191899E-1,4.3989158E-1,4.1304353E-1,6.2444913E-3,4.2546868E-1,-5.16962E-1,5.8141744E-1,2.3653051E-1,-6.0850784E-2,-4.6221536E-1,3.8922825E-1,-3.302474E-1,-6.387729E-1,-5.086012E-1,4.97301E-1,1.3006759E-1,-6.270742E-1,4.871478E-2,-5.19243E-1,5.845175E-1,6.4458084E-1,9.8801665E-2,-2.8171572E-1,-5.476626E-1,7.432665E-2,-4.4383174E-1,-2.80775E-1,-5.093611E-1],"categories":[],"categories_nodes":[],"categories_segments":[],"categories_sizes":[],"default_left":[1,1,1,1,1,1,1,1,1,1,1,1,1,1,1,0,0,1,1,1,1,1,1,1,1,1,1,1,1,1,1,1,1,1,1,0,1,1,1,1,1,1,1,1,1,0,1,1,1,1,1,1,1,1,0,1,1,1,1,0,0,0,0,0,0,0,0,0,0,0,0,0,0,0,0,0,0,0,0,0,0,0,0,0,0,0,0,0,0,0,0,0,0,0,0,0,0,0,0,0,0,0,0,0,0,0,0,0,0],"id":15,"left_children":[1,3,5,7,9,11,13,15,17,19,21,23,25,27,29,-1,-1,31,33,35,37,39,41,43,45,47,49,51,53,55,57,59,61,63,65,-1,67,69,71,73,75,77,79,81,83,-1,85,87,89,91,93,95,97,99,-1,101,103,105,107,-1,-1,-1,-1,-1,-1,-1,-1,-1,-1,-1,-1,-1,-1,-1,-1,-1,-1,-1,-1,-1,-1,-1,-1,-1,-1,-1,-1,-1,-1,-1,-1,-1,-1,-1,-1,-1,-1,-1,-1,-1,-1,-1,-1,-1,-1,-1,-1,-1,-1],"loss_changes":[1.7686355E3,5.7384814E2,8.215664E2,1.7963428E2,3.8776093E2,2.6866602E2,3.0288757E2,4.106224E0,9.2985596E1,4.045999E1,2.3707611E2,1.6626407E2,2.4480121E2,7.303106E1,1.3823596E2,0E0,0E0,1.0472412E1,9.945618E1,2.7627045E1,3.6028122E1,1.0754906E2,9.666699E1,1.0809903E2,7.2597504E-1,6.882866E1,3.2335938E1,3.0697598E1,1.2789917E0,2.0873283E1,8.841382E1,2.1003418E0,1.319754E0,7.876636E1,8.6778145E1,0E0,1.2923981E1,1.628212E1,2.5693275E1,3.993007E1,7.291141E1,5.3866577E1,5.148271E1,6.1696533E1,7.6488144E1,0E0,3.8268676E0,1.3564392E1,8.194913E0,1.4917937E1,3.2424011E0,2.3684673E1,3.958878E1,4.1469774E0,0E0,1.4925637E1,6.0934067E-2,3.9504246E1,2.4223999E1,0E0,0E0,0E0,0E0,0E0,0E0,0E0,0E0,0E0,0E0,0E0,0E0,0E0,0E0,0E0,0E0,0E0,0E0,0E0,0E0,0E0,0E0,0E0,0E0,0E0,0E0,0E0,0E0,0E0,0E0,0E0,0E0,0E0,0E0,0E0,0E0,0E0,0E0,0E0,0E0,0E0,0E0,0E0,0E0,0E0,0E0,0E0,0E0,0E0,0E0],"parents":[2147483647,0,0,1,1,2,2,3,3,4,4,5,5,6,6,7,7,8,8,9,9,10,10,11,11,12,12,13,13,14,14,17,17,18,18,19,19,20,20,21,21,22,22,23,23,24,24,25,25,26,26,27,27,28,28,29,29,30,30,31,31,32,32,33,33,34,34,36,36,37,37,38,38,39,39,40,40,41,41,42,42,43,43,44,44,46,46,47,47,48,48,49,49,50,50,51,51,52,52,53,53,55,55,56,56,57,57,58,58],"right_children":[2,4,6,8,10,12,14,16,18,20,22,24,26,28,30,-1,-1,32,34,36,38,40,42,44,46,48,50,52,54,56,58,60,62,64,66,-1,68,70,72,74,76,78,80,82,84,-1,86,88,90,92,94,96,98,100,-1,102,104,106,108,-1,-1,-1,-1,-1,-1,-1,-1,-1,-1,-1,-1,-1,-1,-1,-1,-1,-1,-1,-1,-1,-1,-1,-1,-1,-1,-1,-1,-1,-1,-1,-1,-1,-1,-1,-1,-1,-1,-1,-1,-1,-1,-1,-1,-1,-1,-1,-1,-1,-1],"split_conditions":[3.5E0,3.5E0,3.5E0,5E-1,3.5E0,4.5E0,2.5E0,5E-1,1.5E0,3.5E0,3.5E0,4.5E0,5E-1,4.5E0,1.5E0,1.4475304E-1,-1.6210349E-1,4.5E0,4.5E0,5E-1,2.5E0,3.5E0,3.5E0,3.5E0,4.5E0,3.5E0,5E-1,5E-1,2.5E0,4.5E0,2.5E0,3.5E0,1.8135E3,3.5E0,1.5E0,-1.5958539E-1,4.5E0,5E-1,4.5E0,4.5E0,1.5E0,4.5E0,2.5E0,5E-1,5E-1,-1.7050478E-1,2.5E0,2.5E0,2.5E0,4.5E0,4.5E0,3.5E0,2.45E1,5E-1,-1.645487E-1,2.5E0,3.5E0,4.5E0,2.5E0,1.7659815E-1,1.3533388E-1,-1.5055808E-1,8.256257E-2,1.3320467E-1,6.1451243E-3,1.8331355E-1,-9.996101E-3,1.7033267E-1,-6.1704908E-2,-1.5725967E-1,1.417901E-1,7.1119264E-2,-8.1502266E-2,1.4924066E-1,5.176273E-2,9.771182E-2,-5.096692E-2,7.7405535E-2,-6.899614E-2,1.5232077E-1,-9.4822824E-2,-1.8575698E-1,1.3196748E-1,1.23913065E-1,1.8733474E-3,1.276406E-1,-1.550886E-1,1.7442524E-1,7.095916E-2,-1.8255236E-2,-1.3866462E-1,1.1676848E-1,-9.907422E-2,-1.9163188E-1,-1.5258037E-1,1.491903E-1,3.9020278E-2,-1.8812226E-1,1.4614434E-2,-1.5577291E-1,1.7535526E-1,1.9337426E-1,2.9640501E-2,-8.451472E-2,-1.6429879E-1,2.2297995E-2,-1.3314953E-1,-8.423251E-2,-1.5280834E-1],"split_indices":[16,18,21,11,23,17,24,18,18,20,20,11,4,11,20,0,0,11,19,11,13,22,19,24,18,11,2,6,13,11,19,11,10,11,16,0,13,11,17,15,13,17,21,11,4,0,17,21,19,18,18,11,9,6,0,15,17,21,22,0,0,0,0,0,0,0,0,0,0,0,0,0,0,0,0,0,0,0,0,0,0,0,0,0,0,0,0,0,0,0,0,0,0,0,0,0,0,0,0,0,0,0,0,0,0,0,0,0,0],"split_type":[0,0,0,0,0,0,0,0,0,0,0,0,0,0,0,0,0,0,0,0,0,0,0,0,0,0,0,0,0,0,0,0,0,0,0,0,0,0,0,0,0,0,0,0,0,0,0,0,0,0,0,0,0,0,0,0,0,0,0,0,0,0,0,0,0,0,0,0,0,0,0,0,0,0,0,0,0,0,0,0,0,0,0,0,0,0,0,0,0,0,0,0,0,0,0,0,0,0,0,0,0,0,0,0,0,0,0,0,0],"sum_hessian":[3.8901035E4,2.2605305E4,1.62957295E4,1.3436382E4,9.168924E3,6.850553E3,9.445177E3,1.9947885E2,1.3236902E4,2.4719314E3,6.6969927E3,5.128075E3,1.7224781E3,1.7822611E3,7.6629155E3,3.2738197E0,1.9620503E2,3.2572195E3,9.979684E3,1.4654875E3,1.0064437E3,2.9617087E3,3.7352837E3,4.8696445E3,2.584309E2,6.864768E2,1.0360013E3,1.5778E3,2.0446107E2,4.6746085E2,7.1954546E3,3.2457634E3,1.1455976E1,8.791817E3,1.1878657E3,2.297184E1,1.4425157E3,5.6884607E2,4.3759766E2,1.556589E3,1.4051196E3,9.6249713E2,2.7727866E3,2.5547075E3,2.3149368E3,2.27075E2,3.1355898E1,4.81953E2,2.0452377E2,1.169712E2,9.1903015E2,1.0092768E3,5.685232E2,1.5149476E1,1.893116E2,4.2155707E2,4.5903767E1,6.4922754E2,6.546227E3,3.1122078E3,1.3355556E2,9.378585E0,2.0773907E0,8.32817E3,4.6364777E2,2.695462E2,9.183195E2,1.4210463E3,2.1469515E1,1.6095364E1,5.527507E2,2.8709915E2,1.5049854E2,9.043961E2,6.521929E2,4.2455353E2,9.805661E2,6.011788E2,3.613184E2,7.7188286E1,2.6955984E3,5.540403E1,2.4993035E3,6.3693585E2,1.678001E3,4.3103843E0,2.7045513E1,2.9153845E2,1.9041457E2,1.1122121E2,9.330257E1,4.801381E1,6.895739E1,5.889867E2,3.3004346E2,2.2584222E2,7.834346E2,1.05627426E2,4.6289578E2,1.1379593E1,3.769883E0,5.720807E1,3.64349E2,4.3303375E0,4.157343E1,4.2550403E2,2.237235E2,5.065701E2,6.0396567E3],"tree_param":{"num_deleted":"0","num_feature":"27","num_nodes":"109","size_leaf_vector":"0"}},{"base_weights":[-2.4510312E-1,-3.9631656E-1,-1.06536634E-1,-5.131971E-1,-2.8705266E-1,-4.445881E-1,-1.35963345E-2,-5.3281564E-1,-4.3698266E-1,-3.7090772E-1,1.4067328E-2,-5.448741E-1,-3.477482E-1,6.1555643E-2,-5.227002E-1,-5.4403085E-1,-4.5239982E-1,-4.9187443E-1,-1.6459276E-1,-1.6013838E-1,-4.447132E-1,-4.168406E-1,1.02093056E-1,-5.485505E-1,-4.9575606E-1,-5.196003E-1,-2.4069536E-1,-5.1767085E-2,2.3070231E-1,-5.550396E-1,-4.8258334E-1,-5.5007917E-1,-5.11242E-1,-4.7408485E-1,2.9735416E-2,-4.9708155E-1,1.5098615E-1,-5.091114E-1,4.0877067E-2,-4.0926796E-1,-1.4966661E-2,-2.7037534E-1,-4.9756867E-1,-5.023782E-1,-8.546315E-2,-1.7885692E-1,2.3858099E-1,-5.258008E-1,4.128653E-1,-5.3236085E-1,-2.3180638E-1,-4.0052766E-1,-2.2253823E-2,6.079664E-2,-2.567911E-1,-2.8160533E-1,2.8983653E-1,-3.9519975E-1,-5.4433036E-1,-5.5428636E-1,-5.2618796E-1,-5.423956E-1,-3.0962458E-1,-5.1123047E-1,-3.089242E-1,-3.5839173E-1,5.336749E-1,-5.488912E-1,-4.2906654E-1,-2.9636756E-1,5.559266E-1,-5.264355E-1,2.6277125E-1,-3.6255962E-1,3.368629E-1,-5.3823876E-1,-2.6488617E-1,-3.5820207E-1,1.8253933E-1,-4.1449964E-1,-7.4835986E-2,-5.4714006E-1,-3.6326832E-1,-5.321753E-1,-2.1411155E-1,-4.9631336E-1,2.6717713E-1,-4.0473136E-1,8.953146E-2,3.9253128E-1,-1.0956159E-1,-5.408456E-1,2.2873409E-1,-3.8540462E-1,1.1210328E0,-5.349864E-1,-9.9544115E-2,-5.5676466E-1,7.572264E-2,-4.868172E-1,-2.4356791E-1,-2.9986572E-1,1.8022043E-1,-5.7249814E-2,3.169682E-1,1.4655703E-1,-3.5506725E-1,-4.0199175E-1,6.0838494E-2,-7.348143E-2,3.5979465E-1,1.1016897E-1,-5.210973E-1],"categories":[],"categories_nodes":[],"categories_segments":[],"categories_sizes":[],"default_left":[1,1,1,1,1,1,1,1,1,1,1,1,1,1,1,1,1,1,1,1,1,1,1,0,1,1,1,1,1,0,1,1,1,1,1,1,1,1,1,1,1,1,1,1,1,1,1,1,1,1,1,1,1,1,1,1,1,1,0,0,0,0,0,0,0,0,0,0,0,0,0,0,0,0,0,0,0,0,0,0,0,0,0,0,0,0,0,0,0,0,0,0,0,0,0,0,0,0,0,0,0,0,0,0,0,0,0,0,0,0,0,0,0],"id":16,"left_children":[1,3,5,7,9,11,13,15,17,19,21,23,25,27,29,31,33,35,37,39,41,43,45,-1,47,49,51,53,55,-1,57,59,61,63,65,67,69,71,73,75,77,79,81,83,85,87,89,91,93,95,97,99,101,103,105,107,109,111,-1,-1,-1,-1,-1,-1,-1,-1,-1,-1,-1,-1,-1,-1,-1,-1,-1,-1,-1,-1,-1,-1,-1,-1,-1,-1,-1,-1,-1,-1,-1,-1,-1,-1,-1,-1,-1,-1,-1,-1,-1,-1,-1,-1,-1,-1,-1,-1,-1,-1,-1,-1,-1,-1,-1],"loss_changes":[6.229916E2,1.8142969E2,4.87534E2,1.0036743E1,1.8561499E2,3.2307922E1,4.6574777E2,4.6761475E0,2.1025482E1,8.937012E1,6.0811844E1,2.456665E-2,3.1244492E1,2.0333867E2,1.7635803E0,6.6760254E-1,7.0601654E0,4.0062256E0,1.6886795E1,5.398177E1,3.9100708E1,7.6657906E0,5.1087074E1,0E0,3.622404E0,2.276947E0,3.673822E1,1.4662611E2,1.2900983E2,0E0,3.5970917E0,1.1315918E-1,4.601425E0,3.7990723E0,6.04888E0,3.8702698E0,2.0130165E0,1.3296013E0,1.8054668E1,1.0090752E1,6.407367E1,2.7947205E1,2.154535E1,1.741005E0,8.391202E0,2.645594E1,4.8083477E1,1.4993973E0,3.005805E0,6.5708923E-1,2.9923954E0,8.112503E0,2.511066E1,1.2406118E2,8.9313E1,1.8201027E1,9.7014496E1,1.8902214E1,0E0,0E0,0E0,0E0,0E0,0E0,0E0,0E0,0E0,0E0,0E0,0E0,0E0,0E0,0E0,0E0,0E0,0E0,0E0,0E0,0E0,0E0,0E0,0E0,0E0,0E0,0E0,0E0,0E0,0E0,0E0,0E0,0E0,0E0,0E0,0E0,0E0,0E0,0E0,0E0,0E0,0E0,0E0,0E0,0E0,0E0,0E0,0E0,0E0,0E0,0E0,0E0,0E0,0E0,0E0],"parents":[2147483647,0,0,1,1,2,2,3,3,4,4,5,5,6,6,7,7,8,8,9,9,10,10,11,11,12,12,13,13,14,14,15,15,16,16,17,17,18,18,19,19,20,20,21,21,22,22,24,24,25,25,26,26,27,27,28,28,30,30,31,31,32,32,33,33,34,34,35,35,36,36,37,37,38,38,39,39,40,40,41,41,42,42,43,43,44,44,45,45,46,46,47,47,48,48,49,49,50,50,51,51,52,52,53,53,54,54,55,55,56,56,57,57],"right_children":[2,4,6,8,10,12,14,16,18,20,22,24,26,28,30,32,34,36,38,40,42,44,46,-1,48,50,52,54,56,-1,58,60,62,64,66,68,70,72,74,76,78,80,82,84,86,88,90,92,94,96,98,100,102,104,106,108,110,112,-1,-1,-1,-1,-1,-1,-1,-1,-1,-1,-1,-1,-1,-1,-1,-1,-1,-1,